-4.225333606984099655e-03
1.450219151643543846e-03
1.276017464525414178e-03
-3.523014143847599724e-04
3.888047497905370090e-03
2.028914012687697485e-02
4.911714331727206478e-02
-3.066485582589768139e-02
1.962494502804397467e-02
-2.725990396843440758e-02
1.994375665108643995e-03
3.831105073844819769e-02
-4.599928860381273044e-04
-8.058397187349992854e-04
2.908911546718119523e-02
-2.356861451932854359e-02
-5.418319346958239482e-03
2.817922959480135062e-02
7.747522631330664572e-03
-8.289951905741242688e-03
-1.395383730412461110e-02
-2.586116470650071802e-02
3.474696660813918984e-03
9.286462235609143842e-03
8.008012837527720036e-04
-1.221024293477945832e-02
-1.214879171488985297e-02
-2.422671237218890564e-02
1.317354761472979688e-03
-4.378320848064580148e-03
4.104107170152270813e-03
-8.426817109981025664e-03
-2.194800152247977469e-03
-1.793882973665096234e-02
2.518067095274672054e-02
-7.487953513937064230e-03
-2.850814930595549964e-03
-1.358533824229905991e-02
8.078814220595675541e-03
-4.365089150422163389e-02
2.752315731341624036e-02
2.043562941857854712e-02
5.855207441174425237e-02
1.559174776086962554e-02
4.901743540854090753e-02
2.405472584527143520e-02
1.045171478899714970e-02
3.508839506658365578e-03
-1.480608528942655051e-02
-5.852411956547826262e-03
4.658483919762971409e-02
2.896149993671798956e-02
1.377373039167417018e-02
-2.778218215365125740e-02
-1.646227395149096710e-03
-3.608430802304585933e-02
-8.874322695250696016e-03
-5.602943098290885660e-02
1.329480731331618946e-02
4.083848630478941789e-03
-7.690541175175437914e-04
1.453720965358717108e-02
8.615831250186766280e-03
-2.708980287603454315e-02
5.094714605421062081e-02
-3.269142672408098440e-03
-1.592898583665564374e-02
1.439455397549393827e-02
8.502805506085751863e-03
-1.212392434038922495e-02
1.167250353698367875e-02
3.852247256142528678e-03
