-1.200505978314191230e-01,-3.981364341209118335e-02,-1.797813439942660130e-01,-8.694565574855454004e-01,3.174433318524315650e-01,4.337976200216546452e-02,-5.747275529034314712e-01,5.319956440777977580e-01,-4.048627967831407992e-01,5.332567612663754453e-01,2.716483984242641925e-01,-4.226878927558229693e-01,2.045931360947046418e-01,1.124462677288904366e+00,-2.612362700422878881e-01,-3.523736012343626350e-02,2.547223516846781055e-01,2.288206367327153823e-01,1.713929322840119784e-01,-1.584269288334712311e-01,2.531873996828241657e-01,-7.863873376613118582e-01,5.621115589373781862e-01,-1.699187970687734417e-01,-9.906535104965244476e-02,-1.633782506571947440e-03,-2.480185568772607166e-02,1.858981731934063533e-02,-1.429972689073319425e-01,-2.083444101460933326e-02,-2.077544696467102381e-01,1.872942267446594811e-01,-4.674986444706369371e-01,3.486327945392512784e-01,-1.236743789728075998e-01,5.421025237833435595e-01,1.672609843668171614e-01,2.787554490000435092e-01,-1.891295427167364041e-01,1.575422350652710413e-01,5.408798129859327952e-01,1.104708704380624879e-01,-8.376616937538138297e-01,-2.108080364804429119e-01,-3.759599033890526631e-01,-6.281049371324838315e-01,2.686720487732148221e-01,-3.349374190898392611e-01,-4.230378415868792930e-01,1.589832131567020246e-01,-2.400846131611709955e-01,-3.581858917101514717e-01,-4.930876348928952546e-01,2.712120627683053398e-01,-1.548743358912013368e-01,4.574788497714321611e-01,-1.984903571203046058e-01,8.909150454298929711e-01,1.380849488776180779e-02,5.482509403865353237e-01,-2.309870053684503488e-01,1.908146583980173117e-01,-4.705648631043422569e-01,8.026682732932045872e-02,-3.361082133020656393e-01,2.320651754675073231e-01,-3.609301509290933074e-01,-4.282197371166183708e-01,-5.607026142291252624e-01,-3.315492945676471459e-01,2.753337985584040637e-01,3.104327444116412593e-01
5.018552701771800129e-01,1.492951449328306923e-01,6.773486370789275068e-02,3.596504800389512813e-01,2.778103256058406800e-01,-7.112030731937524219e-02,3.302546321414446401e-02,-2.215998190256562306e-01,-1.981327545742934404e-01,4.795797076006473869e-01,5.670356956258037345e-02,2.728392132222584032e-01,-1.463390612440618743e-01,-4.904490254582193343e-01,2.114355627700112983e-01,4.007831067610584941e-01,1.130851062295465913e-02,-5.268624230045290124e-01,-2.867263084836368936e-01,4.398613565682708143e-03,-3.322907270023677251e-01,6.155265218435671537e-01,-1.147624294404813838e+00,8.053904249625168932e-01,3.185408285212543850e-02,-1.045501303006656640e-01,2.323126724679687727e-01,3.229065194308838316e-01,-2.498849462275210820e-01,2.793634163723215380e-01,-2.233240390799810793e-01,2.950624071200064757e-01,3.338917143007694155e-01,-1.208779970375085805e-01,1.305820739005177219e-03,-5.420693737610503549e-01,7.262767914463992558e-02,-4.734378404072603908e-01,5.794920841793248928e-02,1.032991679053971934e+00,-7.139821290965846501e-01,-4.407609040855973714e-01,6.628371945592711478e-01,-7.602243589471933960e-02,-2.432977833393456524e-01,-2.474515262952871608e-01,-1.877612097882836173e-01,4.082995503904512935e-01,4.696702069534915425e-01,-1.657088654624275514e-01,-2.266456103584668369e-01,4.229608693322521595e-02,-2.687329279674152138e-01,4.128300032561283417e-01,-1.469278640076284725e-01,-1.051882125050239980e-01,-4.050758754339385814e-01,2.905560624658612423e-01,-3.748490199420994456e-02,2.541928899621011539e-01,-3.279795139323113951e-01,-5.535416407237819802e-01,-1.735011240232810503e-01,8.438115033300804813e-01,-5.811418627937812165e-01,-3.185737492081204825e-01,1.237527027778547728e-01,1.890148414031336266e-01,7.945337111822424470e-02,1.031299415730127650e-01,-4.040895950693335070e-01,2.388606946028367511e-02
-2.898651116688870724e-02,1.153251746230551517e-01,-4.918474289690399903e-01,6.406850838445751206e-01,-2.255911492407174368e-01,3.109866445874195917e-01,6.961134058853346573e-01,1.905863409474231884e-01,1.707131117976261048e-01,-7.182932298085454859e-01,1.204403888743769274e-01,3.978950897541389531e-01,3.001424541221341946e-01,-6.759721707094275001e-01,-5.423969827041813518e-01,-5.368397303386597263e-01,-3.356946424690313568e-01,-3.293126548174653001e-01,4.248972889041613965e-01,2.110712441420977969e-01,2.112749151950088222e-01,-3.914018042017104460e-01,5.662103013431292187e-01,1.834677108567189241e-01,9.068052550687144553e-02,-7.712645635300003910e-01,-2.278991930670248023e-01,3.816944253320627145e-01,-2.243503861645094466e-01,1.542590678678310880e-02,1.596457847650804562e-01,4.563012241980204942e-01,3.007443344740868274e-01,1.711952422488537962e-01,7.314876801488208180e-01,-1.409927032364958199e-01,-4.903083014895671665e-01,1.566058251875034613e-01,-1.815839296312168338e-01,-1.063330831951609046e+00,2.451288986257298130e-01,2.317414164551174216e-01,-1.084227554107869834e-01,4.453145984422564041e-01,5.728096984803927594e-01,-1.993539271842620364e-01,1.144084710156914320e-01,-2.817286524464543973e-01,-3.523579604122493159e-01,-2.170110931412602140e-01,2.545916021538862650e-01,7.978279059982101851e-01,1.152409039580826189e-01,-1.932688250721389944e-01,-9.660797063877045454e-02,-5.349464848932907746e-01,4.907864728771853535e-01,-7.071630369084532797e-01,1.503867281288031321e-01,7.989065077536203208e-03,-1.223909357514846169e-01,5.283341738647879815e-01,-2.663271006214718573e-01,-4.781586790114537577e-01,6.751033250649909889e-02,-4.561681438938888222e-01,-7.860315750643923072e-02,7.048148626321153465e-01,3.790292061665496148e-01,-7.450717446704385738e-01,-6.078831281028602984e-02,3.023915023170353211e-01
