2.777471739525186889e-01,1.234484722954249242e-01,2.684610061009194970e-01,-2.683722667539398254e-01,4.364952428628798842e-01,-5.013225644245687951e-01,7.117595497135334459e-02,4.171984496944605159e-01,1.574212489642055068e-01,-2.209593765739042148e-01,3.210800338776035323e-01,2.178729419408220735e-03,-4.682796208795194648e-01,1.528188812727915014e-01,4.058198157757733071e-01,2.549322270127530807e-02,-6.408439532505798286e-02,-4.110277299622921987e-01,-1.008562867884366943e-01,2.770460295126385142e-01,-3.521782884042990447e-01,2.126576882156063497e-01,3.650990770758655857e-01,-1.280268801253253430e-01,-5.895388284714218885e-02,-7.595700560769351461e-02,-4.324758832677937787e-02,-3.235294837936950052e-01,1.358118848174169058e-01,3.978726422300521426e-01,-2.515074138386141356e-01,3.156142551555906617e-01,9.208756094363204636e-02,2.203591731529112585e-01,-4.623918416556149213e-01,-2.540941539309588548e-01,3.245426477204812477e-01,2.585055636873624940e-01,-2.580599549829046824e-01,-3.669552904580858921e-01,3.970779603902094834e-01,-3.113659550098250017e-01,-1.602966052749828785e-01,-4.021040950300097117e-01,4.687248669756404196e-01,4.226189554284265903e-01,7.424927296543498700e-02,-3.598422241834807744e-01,-1.730101395414105347e-01,-4.191979105139841399e-01,2.647260857848792170e-01,4.812825500083335872e-01,-1.398558219471739417e-01,2.177579015073033419e-01,-3.624621471168387177e-01,1.876348850582326699e-01,-3.151714270075665070e-01,-3.516042950290946822e-01,-5.069978917427909737e-01,3.668805674431490638e-01,-1.902339941258809064e-01,1.784391698881698518e-01,2.516077398012557809e-01,-2.163976395555052435e-03,2.862513491741015548e-01,-1.336594311958999026e-01,4.011613863762527599e-01,4.158167548451310314e-01,1.243775553201620920e-01,1.390270928257966443e-01,3.725270279449408029e-01,2.305434156278073632e-01,-1.956531202161688188e-01,-4.531117435780698810e-01,4.832170422317341174e-01,-4.467691482414058446e-01,-6.929887987903421420e-02,4.267701515755802782e-02,-6.323556084953806111e-02,2.214190882280338002e-01,3.335901095477833977e-01,2.528318584662006194e-02,-1.015520058873300019e-01,1.919662235956262342e-01,-4.568446642190155393e-01,-2.539247495386502407e-01,-3.145653008734321521e-01,-1.645277386181923929e-01,3.476952333775286119e-01,-3.429046962613933047e-01,4.801163764432357928e-01,9.039346435690202852e-02,1.927150111999758608e-01,2.036549945554299024e-01,-4.295455535340978459e-01,-2.544854140703783352e-01,3.202227239605574538e-01,4.742535318592462634e-02,-9.305583129828137734e-02,1.675502014551900898e-01,-3.553384628790254296e-01,4.758596417445829507e-01,-1.771486362503311984e-01,-9.783251640281839800e-02,1.047741006667805008e-01,-9.973136883005809250e-02,3.529371232052809504e-02,-3.498690017827598697e-01,7.763431003616687309e-02,-1.401764517786488196e-01,-1.537772840726901215e-02,-4.623627313280369300e-02,-3.128823231229779789e-01,-4.226927458241102054e-01,-3.172760560204471725e-01,2.316887806538564243e-01,-1.249981684286568806e-01,-3.599144937441169367e-01,-4.508792706096805269e-01,2.723442287292280467e-02,1.838163091967429386e-01,2.000055921134926973e-01,-1.539226884546497087e-01,3.127065270949307974e-01,2.474127670534563284e-01,1.971752354812950636e-01,-2.802444650720374297e-01,-1.654664578301148214e-01,-4.117553863570369566e-01,6.190442738609979595e-02,-3.395091800027552620e-01,-4.692888938506382113e-01,3.676418539802671637e-01,9.250730564620281149e-02,-4.555092461457586617e-01,-9.364895325483596489e-02,2.168099045346121023e-01,-4.852461813824377468e-01,2.879119076100161365e-02,-2.669804691390545992e-01,4.598396044383045167e-01,-1.221592148890576213e-01,3.616805652648665270e-01,3.711455761600165326e-01,-3.412116934525835088e-01,1.775880922548415675e-01,1.354593317948449838e-01,-4.746677757245209572e-01,2.571277093912598954e-01,2.908223825823234021e-01,3.996984949461001579e-01,1.253630580709084730e-01,-5.453941550233248198e-02,3.495334230384969931e-01,2.194547691489395491e-01,8.928154062168568161e-02,-2.207950784741257166e-01,1.900511825639603913e-01,1.556013911875906985e-01,1.903450766496754265e-01,-3.487968104061847097e-01,-1.854601096664558191e-01,-3.025125887926869983e-01,3.811453960619029524e-01,-2.880703524528528403e-01,4.149734934998175473e-01,-1.765813851490194517e-03,4.449613140117261167e-01,-1.901802747704093854e-01,4.778678264873061077e-02,2.956516829867292806e-01,-1.336722565137689889e-01,-4.859844631770922074e-01,-6.218883424642847497e-03,-1.466269762864375881e-01,-1.902059900049096197e-01,1.553398337602582557e-01,-4.213915922798628921e-01,4.517271594622034869e-01,-4.216204123785404767e-01,-4.024374495832802046e-01,4.549641604747557411e-01,-7.819927440615628833e-02,1.982090395482892786e-01,-4.560016438471469202e-01,1.832955680159673029e-01,-4.818791582728386147e-01,-8.505648931403693436e-02,-1.378523295744057409e-01,2.082671993894673335e-02,3.601010689502346374e-01,-3.522701068783464784e-01,-1.019501112707585089e-01,-2.804339732867343060e-01,3.350877163224015298e-01,-3.002122792699342679e-01,2.810923747538683903e-01,-7.739741975032916887e-03,4.492492288080371377e-01,3.248979423842796033e-01,3.667735495330522455e-01,-6.747578250246222265e-02,-6.183854268700061940e-02,3.570370816444357054e-01,-7.506514855436344225e-02,8.145913005743649071e-02,-1.989563263705435847e-01,-2.509171127041474048e-01,3.633043143958391563e-01,5.762430736333150338e-02,-4.409878139261240171e-01,-2.955811218850331046e-01,-1.610001044317868057e-01,2.171638523322393655e-01,2.066219106436439634e-01,-1.129898657584115645e-01,-2.436273736315375249e-01,3.915636781962879565e-01,3.377846492577628590e-01,-3.212603043057875585e-01,2.871804138138979723e-01,6.208940517975410772e-02,3.952616011632124060e-01,-3.515137266279257378e-01,1.148728595135614095e-01,3.686401366902806731e-01,1.899895630207144026e-01,-1.362900329800215832e-02,-2.161199680042735216e-01,-1.660996099305898574e-02,-8.855410357855693360e-02,2.018482118234674050e-01,-3.450360669740547004e-01,-2.970259871077093883e-01,2.971382984639668878e-01,1.225075972738872976e-01,-2.990929973695429789e-01,2.827132348351362734e-01,4.749045544344993042e-01,1.306373339388706145e-01,4.348584420812844353e-01,-1.069290517655236694e-01,-2.754728750001210758e-01,2.594303782073356657e-01,1.433852284416319012e-01,4.768075910616179636e-01,6.642785002125907445e-02,4.116305989779944219e-01,2.865619620871334150e-01,-2.004592265319048161e-01,-4.879863822400855589e-01,2.647386729140174255e-01,1.896561230165866863e-01,2.432078533231461781e-01,-1.613059655403797643e-01,2.520475973481414167e-01,4.578438953657787414e-01,-3.788849317798202998e-01,1.447828815254372792e-01,4.834627440173923651e-01,-3.180044800723048071e-01,4.353926903296831408e-01,-4.296841876101314406e-01,-4.738827338384906662e-01,-2.711126930181946837e-01,3.722137488430242724e-01,-1.731246181979091969e-01,3.373358905496188220e-01,-6.047255135793896605e-03,-1.933077025904260740e-02,-8.251465099548886684e-02,3.184533135439318596e-01,-2.625391222745002487e-02,6.508542780347984121e-03,-3.905212589163825077e-01,2.449936476671413579e-02,3.139719819357418840e-01,4.197320475433186648e-01,-1.232352062252432406e-01,2.079422820626360482e-02,3.266724455521741732e-01,-3.028980312503632977e-01,3.933638743675819255e-02,-2.448545536590033406e-02,3.780460589935743521e-01,4.003943363426943347e-01,4.559385908428400525e-01,-4.344633826191922066e-01,1.564918023994842089e-02,-9.410719577770707694e-03,5.140422064002734270e-01,2.121006077392099953e-01,-3.020135156260813081e-01,1.656126221135488519e-01,2.769181028017087542e-01,2.787633104817556218e-01,-2.127612640998372828e-01,-2.805641642036536543e-01,-3.516476310050272724e-01,6.463368879398688482e-02,1.912233794706311163e-01,4.103598294522929901e-01,4.357161996638368728e-02,-2.152372836001227030e-01,-4.370599877838851066e-01,4.305343844514164520e-01,5.066385734067657687e-01,-3.816991933086478772e-01,4.484733431029335193e-01,2.930774574738835847e-01,-2.225893733071407921e-01,-3.599299857373937095e-01,1.050592336345897299e-01,-4.892601542737277098e-01,4.305104728975413519e-01,3.170396501355463581e-01,6.586875182828870467e-02,9.900065043551777022e-02,3.667100084155638928e-01,1.443289243007321865e-01,-8.943995502681227616e-02,-2.498454749159731078e-02,-1.287870663927672410e-01,-7.430134366926680056e-02,-4.651389700009290334e-02,-1.895698437861790542e-01,-3.471624028287275676e-01,4.757718239996280851e-01,-4.210211642504093077e-01,3.024660161950452619e-01,1.528835855401823318e-01,1.276659712587612239e-01,-3.580596984602785193e-01,2.977946535132056094e-01,-3.820426356223152742e-01,3.224974900381481491e-01,1.202258844266045901e-01,8.851953145463370420e-02,4.550007691266264032e-01,1.179346631633825943e-01,-4.240952808179069833e-01,1.299111837779699796e-01,3.386249616176715826e-01,5.544916694184828798e-02,-4.188867367442841161e-01,1.645428325420185411e-01,4.963695126504203969e-01,4.564716609065954667e-01,-5.046705095418385634e-02,-3.046524253806557336e-01,-2.753325225397976750e-01,-1.878556120938876250e-01,-3.357502401777094914e-01,6.396757796464264123e-02,1.787279987767071143e-01,4.504048534387040115e-01,5.725081784486806685e-02,2.185511633458001590e-01,-2.603582186277213495e-01,3.203931974471823652e-01,4.878371828877788863e-01,-7.610563294284179714e-02,2.434304767287132909e-01,-3.937996119150232732e-01,-1.728814139533437766e-01,-1.755577395094282123e-01,3.542468904823865006e-01,-5.006971891644133033e-01,-4.381786981171497120e-01,4.493779176349437243e-01,-4.764123326781338763e-01,-2.178449059103174379e-01,1.511932149946670079e-01,2.603702177446252652e-01,1.775030238347423961e-01,4.613989543578796981e-01,1.769104446436162437e-01,-2.962174687890206659e-01,1.290154518521917371e-01,-1.844866172260294090e-01,-2.000056733424599720e-01,-2.092142047649908632e-01,1.649308880144920442e-01,2.736362759041460757e-01,-1.952645150430413201e-01,-4.264048291739084423e-02,-2.959705801995629049e-01,3.903119162605655501e-01,4.607246942826878633e-01,-2.083855127806333585e-01,-2.874240704597221252e-01,3.320780304539463490e-01,2.237957146371229861e-02,4.179624580418782320e-02,1.507460403313623798e-01,-3.033565760562789704e-01,2.478619414557973744e-01,-1.616708074898283165e-01,1.850660168833818120e-01,1.989017537134775693e-01,-1.685056370960172009e-02,7.998433257059857360e-02,-4.413094207273776104e-01,-3.654422900245564709e-01,2.825484974605100841e-01,1.808981588114867978e-01,2.490462715149418249e-01,-8.395840665029808900e-03,-2.043417679652072272e-01,-1.816779815449941771e-01,1.572521780287941262e-01,4.758490590449631075e-01,3.177477148588505607e-01,4.536835390340266949e-01,5.318382995273705088e-02,-3.019598407770520132e-01,5.003821089147498791e-01,2.641678494151309883e-02,-4.253868180462897497e-01,-2.059304880594379494e-01,4.854490478964421096e-01,-1.771715304314548378e-01,3.593977959614072515e-01,-1.011807248793977071e-01,-2.095891963670798164e-01,-2.000474141279889317e-01,7.624817785364292055e-02,2.165525963542043186e-01,1.177923293420204826e-01,-4.291683748103125029e-01,2.651558522787421726e-02,-3.177053105714454095e-01,1.926016064644126835e-01,-6.034718361296141642e-02,1.001741214655265944e-01,4.428597736648521854e-01,3.079246070110365219e-01,6.757635336597303533e-02,-1.899428926313137533e-02,5.190672434241778710e-01,-4.473883406524529760e-01,4.794004865510125835e-01,-3.680328333339080160e-01,-3.471108492741133422e-01,4.777618319892015242e-01,1.155595909113765474e-01,8.525632576808935686e-03,7.227638088829434204e-02,-6.505307708010583945e-02,-2.556617635791891829e-01,-2.079978761689847133e-01,-2.680459113831596407e-01,3.457389782810015855e-01,4.608774562869662472e-01,-3.358248736212173235e-01,-2.880048537600288783e-01,-3.037627236075212123e-01,2.145665063484259172e-01,2.911957773863230181e-01,-2.599483758107182796e-01,1.186549021655127073e-01,-2.191460559072550829e-01,6.657639564939517307e-02,-3.955598862434331342e-01,1.844215370338359583e-01,-3.945392600570987174e-01,3.914140481217507350e-01,-1.423527454482352295e-01,2.218234364301926720e-01,-1.575978675485182334e-01,-2.382294808135492284e-02,-4.004851487720220149e-01,-1.989572778626685079e-01,3.544097627580613530e-01,-4.062978904475688102e-01,3.154352293433977938e-01,2.908460332853360919e-01,8.487278921475983895e-02,4.464592136426078772e-01,4.999810293760992841e-01,-3.642846996877420751e-01,-3.397327200779363676e-01,1.946732440243329476e-01,-4.819169732010939455e-01,3.279361560804074927e-01,1.185049644531293439e-01,-4.682427030705370585e-01,-2.272504700767451757e-01,2.258636352483379406e-01,-4.284359659087674799e-01,-8.152098608435842664e-02,-3.714798624970679364e-01,-1.456128560395578142e-01,-1.265383458635038283e-03,-4.742365835934189006e-02,-2.179288573597614187e-01,-2.399092536537941467e-01,-2.693795947902009602e-01,-1.867556583943533743e-01,-3.418177437258822504e-01,-4.939987260065090841e-02,3.758803229391659562e-01,-1.693482474273253768e-01,9.947083005302030656e-02,1.649526154761530583e-01,-2.795180150493059013e-01,-4.166152535212581109e-01,-2.501078212320552163e-01,3.320433432922924033e-01,9.920876959619277791e-02,2.320464095111325065e-01,-3.952682926092037502e-02,-2.692757310365989643e-01,-2.155387773349665415e-01,-1.375367454545740331e-01,-7.841635336363976527e-02,-2.018206069610861686e-01,1.948571976188072938e-03,-8.169844708256936497e-03,2.622522304084108913e-01,-1.368947185659413479e-01,2.100538148233317137e-01,3.451810419927828222e-01,1.504653851397783904e-01,-5.329646010148929997e-02,1.406882257752846699e-01,-3.343291834263162898e-01,3.687992291519959220e-01,4.206825861937183442e-01,3.983830311967689886e-02,1.335889427734768820e-01,2.964363053082193500e-01,-2.951302305346514832e-01,4.913154112186559619e-01,-1.734918240708743231e-01,4.195204865912015996e-02,2.260226680087172868e-01,-3.674342377825698946e-01,4.760643600251168728e-01,-8.542890549716955495e-02,3.497818301474542313e-01,3.214407624783344741e-01,-1.017610291436627235e-01,-5.658426159657943544e-02,4.171219257929926205e-01,1.729250208822459556e-02,1.642214514359518346e-02,6.168359364694284835e-02,-1.342597747176936269e-03,-1.073288770630070332e-01,-3.605641909154628788e-01,-3.068294659713201034e-01,8.392734260075718211e-02,2.876148425397850872e-01,4.096062401502646028e-02,-4.649291632906537020e-01,-3.927838519560162833e-01,-3.541219038680906150e-01,-3.128787871601749204e-01,-1.566358134251000789e-01,1.627754591821698182e-01,-1.413871939069223094e-01,-3.616623452699508356e-01,3.528263254936162552e-01,-3.563732237471503028e-01,-1.171304061280407788e-01,2.450222467428603279e-01,-4.445175204354143150e-01,-2.546555323274610760e-01,-5.967049889986932032e-02,1.406379735257874131e-01,-1.024425212468657448e-01,-8.187535503541658322e-02,-4.208337616200962250e-01,-5.787329827921598030e-02,2.436138276997625030e-01,4.045693015584831964e-01,-4.940068733895239816e-01,1.554437456558631081e-01,3.644075642460953279e-01,-1.179640774701726097e-01,-2.531188243706148921e-01,-2.364832409218061149e-01,-5.137794290335337966e-01,3.557735354786016324e-01,4.127985173310709799e-01,2.703267922546795377e-02,-3.578879688376841450e-01,2.332739680527291803e-01,-4.040409115904888271e-01,5.747378445386752688e-02,-2.140167931036059401e-01,-4.001539425698930064e-01,2.968529881749331634e-01,1.510620664464103029e-02,2.089381142804321856e-01,4.780528328121546044e-01,4.168000172819260468e-02,-1.895004240582534027e-01,-8.711916572811666259e-02,-2.464998278382987962e-01,-4.134358153497459387e-01,1.902062493412574051e-01,-2.819970700953763343e-01,-1.339910484973742544e-01,-2.138844429015708537e-01,-4.878871614643284782e-02,-4.599279519723981635e-01,-2.095097115307392732e-01,-4.202440014447015870e-01,3.145499881723231445e-02,-1.697805373130084894e-01,3.971173323464196048e-01,-5.053976867054625899e-01,3.148919865597255008e-02,3.804370339906330001e-01,-3.902357717015558780e-01,-7.811571431561939449e-02,2.572597705334886964e-01,-3.202168383769578575e-01,3.887519016678325778e-01,3.874525917025581911e-01,-3.426939197361655864e-01,3.581127621596771893e-01,-1.765292185350640086e-01,-8.570055466972295588e-02,2.677525070668739793e-01,6.938499715380373745e-02,-3.408890878963595772e-01,5.350975446110269873e-01,-4.411558317775397114e-02,3.817262596264850427e-01,-3.861359486154619103e-01,4.282267161022680346e-01,-4.583455662088167792e-01,3.182967266504644899e-01,-3.425305093373961496e-01,-1.303687458077116279e-01,3.358188410379280842e-01,-4.861411601986465603e-01,1.825400363549355698e-01,4.160285921449684565e-01,-3.148691461823162063e-01,4.869948201106901187e-01,4.548615336740391424e-02,-3.273348531695799424e-01,-2.114550268041769931e-01,-1.986057431744567281e-02,-3.083140495596929931e-01,1.951824809391738691e-01,4.866219808022798632e-01,1.429661699725885138e-01,2.907858118018472049e-01,4.274282724778356024e-01,5.189316024383409248e-02,-4.611044115858893289e-01,1.651128235144811995e-01,1.268499996030661714e-01,-2.791439960496412409e-01,3.434824196957041997e-01,-6.596926663594124274e-02,1.449939636966349199e-01,3.994717447958461287e-01,3.763436506080187205e-01,3.956444541609159815e-01,-3.899657249901815059e-01,-1.054668642118160131e-02,3.037575018810698690e-01,-3.058348558081138147e-01,4.438687029888567781e-01,-4.355755064049307013e-01,-2.367806797626199333e-01,-4.702466221949898606e-01,4.241017198740641425e-01,1.040997841576929289e-01,1.759455297148453945e-01,-5.819432735486618213e-02,4.967601671630184068e-01,-4.361045360962512718e-01,-8.717326223166124754e-04,4.094954422785107573e-01,-4.784507495781205599e-01,-3.876622893794144931e-01,4.870682995611404498e-01,-3.961904083999266413e-01,-2.951578304894313942e-01,-3.035008376401061025e-01,4.986517524764952913e-01,3.907682473373604304e-01,3.901006806291761747e-02,-3.166194733727158428e-01,2.173825432961070669e-01,1.201526220556436153e-01,2.397980637341187160e-01,-5.249491778685636545e-01,-1.504471375703334557e-01,1.620460804606687344e-01,-3.666399320202983758e-01,-1.249930060923317154e-01,-3.994235561356362929e-01,3.811331904233088985e-01,-4.086852371382352495e-02,3.902426871673906339e-01,-3.784393967298514960e-01,1.269252988143494687e-01,-2.455534721605976411e-01,4.403262832591121612e-01,2.332738496828836994e-01,-4.380377653854793940e-01,-3.642926592595887025e-01,-4.239653628620106418e-01,1.961736890194073490e-01,-8.761529588132045687e-02,-1.565017609784407904e-01,-4.417786561181959171e-02,-1.366530418791921386e-01,-2.397780201060054628e-01,-3.339019447519580575e-01,-4.957507265102612665e-02,2.610938633914927642e-01,-7.903483334119119907e-02,2.227464280687102283e-01,-1.583998087708034519e-01,4.609694113394117720e-01,1.576130309641510796e-01,4.696027305724365108e-01,3.849579775655677105e-01,2.956340588433533090e-01,2.329258555827503629e-01,3.874544154898393322e-01,-3.841122728344562726e-02,-2.372747129948193402e-03,3.592832500172005727e-01,1.563028844414549312e-01,1.298180879672171661e-01,4.951951867206299540e-01,-4.820858126981306113e-01,-3.517934921420095423e-02,-1.795934880080029272e-01,-3.256030909269461843e-02,-1.539030739019962568e-01,-4.843603732569845555e-01,-2.642360477718540546e-01,-1.544162161196635866e-02,8.266141600580481641e-02,2.095598902508704897e-01,-3.416759830644199303e-01,-3.945284302212770378e-01,-2.877618731656234607e-01,7.827000605944374467e-02,-1.873996057437356533e-01,3.021412638113825100e-01,3.898336643751311725e-01,-3.491695713230881792e-01,9.967137634881033381e-02,-3.984327980669294389e-01,3.897920975884842237e-02,-2.543475365410586275e-01,-4.775481862189540072e-01,1.179978165152039682e-01,-2.380836656763045053e-02,-2.452863543236608601e-01,3.424824635557034425e-01,-9.913341725012687899e-02,-3.771414872985974776e-01,4.454036409509262717e-01,-3.663639961753440422e-01,-1.830564816020639196e-01,2.662753425010751518e-01,3.566662798324230499e-01,-1.398413756762332746e-02,1.283582523420573607e-01,1.989304065561562918e-01,4.609655217064381923e-03,-2.166184175326937855e-01,7.635182000275635150e-02,-4.443650163539648590e-01,-3.211284711365422484e-01,1.849823390390936406e-01,2.922819282983823985e-01,-3.566160263570086753e-01,-8.456837147785993547e-02,2.666602308137021038e-01,-7.884370179868940842e-02
-1.173263500428029515e-01,-4.250283708427675111e-01,1.715763563872615138e-01,3.616950992771560958e-01,-3.879939309577583595e-01,-6.512073606218550526e-02,1.575648411587755220e-03,-2.526628804595887345e-01,-2.370501383095361403e-01,-2.355279823156083974e-01,2.211984596397711389e-01,1.864807144057504806e-01,9.341597133067550129e-02,-4.312295686079725132e-01,2.335322996804933826e-01,1.408700605766989751e-02,2.924313780906121485e-01,2.322721325868319087e-01,4.805192567224795264e-01,4.249233900341579662e-01,-4.150768907054687706e-01,-3.643566777959077463e-01,2.702571931713827480e-01,-4.510093329242674809e-01,-1.084852390515395233e-02,-6.348918442383025273e-02,4.992578860196211221e-01,2.956399524965910852e-01,-1.359122921051680345e-02,-9.688871587115754913e-02,-3.639212099343901996e-01,2.428173572268707558e-01,-4.013318033730608331e-02,-3.902343824735787225e-01,-1.182877586598750225e-01,-1.009632534781062102e-01,6.632904208624218478e-02,-2.037652646692687530e-01,-4.760544423693182647e-01,-1.286099078409718433e-01,-1.955286021605699143e-01,-3.456494624892750833e-01,6.919400289459669284e-02,3.452359704443997424e-01,-2.521168334834361646e-01,-1.213581644957918843e-01,-4.906163095463325075e-01,-1.352569003195873421e-02,-4.694495425249959886e-01,1.086846490762060358e-01,-3.463030252648715071e-03,-2.970580385512693877e-01,-4.017431140712132143e-01,1.020796610160039190e-02,1.126391446740514918e-01,-1.495878032880975372e-01,-1.003180491824549325e-01,3.201940935439373526e-02,-1.456763726823089578e-01,4.535259408641559853e-01,-9.989877212534818696e-02,7.222231258158307021e-02,2.484201249987240956e-01,-2.510905688871849506e-01,-2.059304437058216419e-01,-4.164100075998862782e-01,4.325485966467254584e-01,-6.212687478573736960e-02,-3.028037961631778463e-02,2.136575854896309024e-01,-4.840606355866482469e-01,1.571455705619924648e-01,-7.608083529736295314e-02,-2.136953909784838068e-01,1.182610080453835588e-01,-4.626753105183698533e-01,-4.629408891493418388e-01,-2.517161529473364023e-01,2.056834609524263169e-01,3.913625731019926279e-02,3.246719476805759452e-01,-1.498498407398853385e-02,-4.727261072054613211e-01,-4.849982000878812483e-01,-4.848384913513713590e-01,-1.783950228822524797e-01,3.473768529389488768e-01,3.771084514737872428e-01,-1.040860606855160270e-01,-2.312147889714625815e-01,-3.820453872859189831e-02,-2.003320900009158412e-01,-3.345248363572355665e-01,-2.017952516209571556e-01,1.814946593353516935e-01,-1.861994121743517083e-01,1.564859410281248531e-01,-1.792269829578740648e-01,-4.860997461535470077e-01,-7.357621353627853689e-02,-3.823391565458673647e-01,6.405910274602635845e-02,3.493730989379728036e-01,2.978187821075611169e-02,1.872807273074607592e-01,4.496205374400397137e-01,-1.215339407868444022e-01,4.641209368462859697e-01,4.930808887609401392e-01,3.175719958699080858e-01,1.314902177082519774e-01,4.176311957424859167e-01,5.744045314665052748e-02,1.080525872732260306e-01,-3.533679914708669489e-01,8.375597639660498084e-02,4.538801825186752348e-01,1.082520951648022201e-01,1.341289229944552831e-02,-4.012895022861074357e-01,-5.815956839643020987e-02,-2.473373220141752704e-01,-6.365204416041153612e-02,-4.318075903307271868e-01,-3.884973479412956454e-01,4.208286530057420705e-01,-4.969772637977625807e-01,-4.024514481714299152e-01,2.345990075474920222e-01,-3.631922953897603334e-01,-3.290110080367749656e-01,-4.595288112431383798e-02,3.410090305485588558e-02,-4.321958762720897740e-01,3.501743590548588858e-01,-1.100409853097270296e-01,-4.671711570191546259e-01,-1.238793965775072392e-01,4.106228105995663458e-01,-6.934377138811446961e-03,7.736296570625131319e-02,2.346315312012630938e-01,9.613748734350835434e-02,-4.194107359592356699e-01,-1.681549896896900997e-03,-2.607133241455358852e-01,3.723190029128277678e-01,-1.669945411596742146e-01,-3.458316494444568234e-01,1.298781998212297957e-02,-4.714189724899820466e-01,-1.100864799413057010e-01,4.313012230424073667e-01,-3.198014418870544495e-01,1.998680401757709502e-01,8.425974746811609739e-02,2.058623357408242427e-01,-4.095379139092666376e-01,-1.999445836348199279e-01,-2.857298912702644494e-02,1.526313224222757281e-01,-4.233840522977684873e-01,1.569275423639781286e-01,-4.515241046070455067e-01,-3.273238347528618919e-02,-4.935799524178736131e-01,-2.101384228622089900e-01,-1.601331564980310873e-01,1.164104256814270932e-01,-3.832668080245908437e-01,3.486058422555224912e-01,-3.309519657837773354e-01,-2.552053307496299772e-01,-4.191938812789594571e-02,-2.155548439699881552e-02,-4.701181514567931985e-01,1.200773218984421548e-01,-3.862729336293080906e-01,-3.558305648137282673e-01,-2.099819302842268198e-01,-1.862883437339269976e-01,-3.090115881201579984e-01,3.373662333208944930e-01,1.858753010129009231e-01,3.326085182325450029e-01,-2.873103547660347257e-01,-4.031479060774693091e-01,3.783729755717168963e-01,3.979110114187858205e-01,-4.405005451575884357e-02,1.118262376000157127e-01,-2.789181713834946175e-01,1.155813035050583804e-01,4.556134604702152258e-01,2.684256201224529126e-01,4.485503492231014411e-01,-2.158432413233146718e-01,-1.977976259111632051e-01,1.054403815650305637e-01,-3.465744075156474979e-01,-3.321498111276960929e-01,-1.295516199765818777e-01,2.751355243733729639e-01,-2.882006145592615476e-01,-4.757016324463502199e-01,1.881177942803946013e-01,-4.251261501231801687e-01,3.692328338457953052e-01,-1.289374115474033466e-01,-2.896447366627936115e-01,6.128571196301828977e-02,2.648178608443438886e-01,-3.246991003064572667e-01,-4.377994810007736493e-01,-4.690302579904763181e-01,3.340858598331805651e-01,-3.974819013402448031e-01,-2.454956482907555970e-01,4.414023808746912053e-02,4.336649824470118486e-01,-3.449497142322907051e-01,1.177721788198820424e-02,2.856363848221639690e-01,-9.761541197427880956e-02,-4.431787002269914066e-01,-8.096475063130167960e-02,4.761775778011053117e-01,2.947806442396319060e-01,-2.514734964966131026e-01,4.014461059323247150e-01,-1.501391769717865254e-01,1.787031806454757177e-01,-1.974968537907379959e-02,2.820702232387525821e-01,-3.319751607818433037e-02,-2.601599212753131773e-01,3.273381533365701257e-01,-1.933560009628165210e-01,4.688840105022082372e-01,2.073722257502765287e-01,3.488031421742134042e-02,-1.770612061669839254e-01,-1.702714598744856367e-01,-4.445896948247300418e-01,2.402126934028129407e-02,-3.780643200820116845e-01,-1.839150994182251198e-01,2.851219675341907234e-01,3.225183324346325708e-01,-1.103582814525274833e-02,-4.457826504743131468e-01,1.740131798032236721e-01,2.522348607487518990e-01,9.658547523108837463e-02,-1.671917310613368624e-01,-1.345464306800440990e-01,4.235974637005061605e-01,-3.578776193937762695e-01,-4.518418914947354148e-01,3.794912278264960248e-01,-2.855625958480572657e-01,2.711367811991474142e-01,-4.948379401484523932e-01,-1.861352869771157326e-01,-2.839961163684238121e-01,3.679471117679259384e-01,1.360681257354388607e-01,-1.948809095434672900e-01,3.511431264385302398e-01,3.443237286406483633e-01,3.220729704571780871e-01,-1.877777369714028755e-01,-5.070864874163813485e-02,-4.497119744317235046e-01,-3.056845983106610265e-01,3.885384418185552913e-01,-1.607335285675390024e-01,-4.238424957217190037e-01,3.104676557770421827e-02,1.086305634555716909e-01,-3.111377430382900044e-01,4.277327693547561954e-02,-1.465199752574722347e-01,5.999167821350463031e-02,-1.244976031995771865e-01,-8.953572624502439958e-02,3.825237115773135188e-01,-2.678747893316717477e-01,4.132324921907180176e-02,-4.583380460513551968e-01,1.591493304474672910e-01,3.145736971168884288e-01,-1.630584634177484338e-01,-2.918226843311486074e-01,-4.541889076326277030e-01,-1.306314153254982055e-02,-1.263880495280640393e-01,3.860174537378677218e-01,2.713888571963559912e-02,-3.522454884683391685e-02,4.491031730647302989e-01,3.810554798573853597e-01,-1.477662393370191563e-01,4.645807867492249277e-01,-4.382454641862282979e-02,-3.103737350471779677e-01,8.890960047877648209e-02,-1.122184621017510431e-01,1.392675307909202465e-01,3.640971960041350375e-01,8.078088698195620698e-02,6.577208511972658378e-02,3.899200017686202391e-01,2.935042225101671121e-01,6.103884916985533732e-02,-3.321300949534405356e-01,-3.494979467864228195e-01,3.084163315616114120e-01,-4.839282652027130927e-01,9.967714904609831228e-02,4.205348416897415897e-01,-2.954784644649384728e-01,-2.167851136232616313e-02,3.487464477850790168e-01,3.672221509329858663e-02,4.592699283315027636e-01,4.771366686875854746e-01,2.606196369827601042e-02,3.531572465519103310e-02,-4.224619284525338303e-01,-3.352079301421809210e-01,1.062954788010996576e-01,-4.155086533805681381e-01,2.175123176685104034e-02,-2.529820063961977783e-01,1.660034216886520642e-01,3.007017660160389294e-01,1.183064377975485970e-01,3.378421930276643836e-01,-3.944399379744395473e-01,4.221885674821613810e-01,1.432596911600612921e-01,-8.840901533569661686e-02,4.712388884348039375e-01,-4.493752951844182664e-01,-1.967837836245154015e-01,4.153991795569094703e-01,3.919696196530488286e-01,-3.085151266928242153e-01,-1.900236737123131292e-01,1.070096239881098005e-01,4.564126464978904285e-01,3.289582111443234425e-01,-4.459757085891840611e-01,-1.179143338321497064e-01,-1.692438051379439312e-01,3.219457158727800361e-01,-1.546651443184118568e-01,-1.421089605846017068e-01,2.641113545373158233e-01,-4.880714193444346538e-01,2.833324403672760616e-01,-5.398113349952108481e-02,-3.705295464087459134e-01,4.836079211911775144e-01,-4.362777425565594891e-01,-2.910209952482518680e-01,2.768988836532091935e-01,9.283545223582106987e-02,2.941087991371432175e-01,-4.906383331704582962e-01,-1.913388762119240527e-01,1.345333810853470147e-01,7.109337622459116490e-02,-2.156048882255284238e-01,-1.073676044596838935e-01,-8.665264908847325476e-02,-1.827270329176481634e-01,-3.151978739022493620e-02,-4.461294279746018110e-01,4.454193931279785690e-01,1.591714685111500771e-01,-7.789753152688964899e-02,-2.494865263268566113e-01,3.864884270793053078e-01,1.052405328979570398e-01,-7.391771029324822884e-02,2.320022622500907961e-01,1.722594459441516013e-01,-2.824520585523855876e-01,3.491088316228099786e-01,-2.368909442424100009e-01,-1.415861562539116880e-01,1.497868571318440312e-01,1.686873134821841036e-01,1.849213608285666943e-01,-4.202092139132596604e-01,1.842031997853154357e-01,-2.543415134767807451e-01,4.706065891375204591e-01,-1.505137451219129840e-01,-3.525120150662108265e-01,-3.911608735405976423e-01,-1.490213569431396157e-01,2.971798941957989326e-01,3.652841191335197690e-01,2.792713198347835934e-01,1.359400753701014118e-03,4.042730583690877788e-01,4.902918155407484102e-01,4.434081450386930801e-01,1.073487192735708418e-01,3.782082735405285501e-01,-1.360648974529245492e-01,1.020590362631314113e-01,2.946367033102046395e-01,-2.047589613314755586e-01,4.182678454847986171e-01,-3.480978791733506383e-02,1.494844490257195291e-01,-1.032218610135940962e-01,-1.643455849759710985e-01,4.880680875077698100e-01,-4.208022452940676228e-01,-1.857573510478686130e-01,4.856826929920084468e-01,-4.232630877201641328e-01,7.726748503205134455e-02,-1.043556179393894667e-01,2.560990316798811284e-01,4.085720142298112090e-01,3.735590713413005637e-01,-2.898320717789378276e-01,-3.043442007230832691e-01,4.474593495941632804e-01,3.614048586063199897e-01,-4.224616891933837826e-01,2.177062467026101567e-01,-3.155860510124339213e-01,-4.449401543042263985e-01,4.700838286811324651e-01,-3.599259471408640665e-01,-7.614594359318820928e-03,4.983032050764005932e-02,3.692991601075466535e-01,2.056226704098562397e-01,-7.007259187273162659e-02,-3.736754525973506186e-02,-4.502594587385430613e-01,1.430790374577679824e-01,-3.955273998255954826e-01,2.256222819248886735e-01,-4.826360719446489700e-01,-1.644527643239049042e-01,-1.301045983653254245e-01,-4.395381520509216156e-01,-1.673818257089098316e-01,6.448294829807765804e-02,-3.639860067281217026e-01,-1.537328131403778164e-01,-3.043865608889290697e-01,-2.938479080656613562e-01,-1.280509891393539490e-01,-4.237290732769222190e-01,1.677681579872993267e-01,2.357992202266555037e-01,-9.797794705333472132e-02,-4.729935484576761606e-01,4.352458650879393320e-01,-4.258115553891199112e-01,2.648645265599229859e-01,3.888114862308277297e-01,6.346236498688080652e-02,1.495848164306124994e-01,4.402935629673651596e-01,-4.161888564479606159e-03,1.313361906492955915e-02,-1.855277525569096198e-01,3.060730442617712321e-01,2.869222042954145957e-01,-3.557550142621846434e-01,-2.245529998834679408e-01,1.760855808062996297e-01,-1.293679532928190268e-01,-2.536486584458153004e-01,-3.724292327220279919e-02,2.609001887566798628e-01,-4.006102625637071313e-01,2.200810286067016869e-02,4.486848495641067580e-01,-4.426846859907039300e-01,1.065719318876445637e-01,1.416007944386409034e-01,1.369995071291096322e-01,-8.716134273533475418e-02,2.228689794517051681e-01,1.945195785253773374e-02,-8.860921916591188441e-02,2.776132717955920315e-01,3.630610281947056484e-01,-4.644314921529751894e-01,2.344847121943623436e-01,4.627375974882936838e-01,-4.789579990658836550e-01,-4.099075657164175102e-02,4.254586776199744125e-01,-4.569139553394120368e-01,4.635702889107806701e-01,2.303021443867781792e-01,1.908140843046964297e-01,-1.471017955149052890e-02,4.836923949890812868e-01,3.799594848253508572e-01,-4.550929336510092793e-01,4.904026561346973567e-01,-4.277988746319441038e-01,3.055847510648312393e-01,-1.898080104965321202e-01,-4.970541450276740880e-01,2.902336059395188017e-01,3.470911474331948021e-01,4.811906563997075253e-02,-5.392952493386191787e-02,-3.251296494750014476e-01,-3.083725866846034197e-02,4.866263320763946632e-01,-3.943363497273743024e-01,4.944220791395358972e-01,-3.731140533167845441e-01,3.629122236166856252e-01,2.536673586213650244e-01,-3.389875964982936862e-01,3.918252018988144791e-01,-1.870727455512361317e-02,-2.246604615338717581e-01,-3.809904744424270628e-01,-4.259373279927085032e-01,-3.204446081507169031e-01,-2.624224428313623458e-01,-1.037264954009255863e-01,-6.231853949910725471e-02,2.964273804240285526e-01,4.942624790853776262e-01,4.879926760659771268e-01,3.679266958944442667e-01,-8.952601892023566432e-02,3.940239877497319076e-01,-3.267095336720508142e-02,3.028561999726312459e-01,-3.570162294636761713e-01,-2.607033876343075596e-01,2.179992426444536391e-01,-4.506636204869405860e-01,1.806580232422299315e-01,-4.093945306571049603e-01,6.388613390874314790e-02,9.303963267039758525e-03,-8.226769745415514479e-02,-1.377477145810711290e-01,-8.948742620761059030e-02,-2.606571423711318558e-01,2.296789562696945064e-01,-1.814902900499719418e-01,-1.811631590534791003e-01,-3.784654262748430864e-01,3.871208889605917136e-01,4.362772820808296093e-01,3.787005939571387592e-02,3.706468724557961392e-01,1.229742853370295597e-01,2.269666183586043495e-01,-3.356977910891703054e-01,-4.678001118335633479e-01,2.077742171742551214e-01,1.122686686830121072e-01,1.827491855571141410e-01,-4.076668706738739711e-01,-8.823038871548419260e-02,-3.438546857599225626e-02,6.513299088946281068e-02,-1.139093176584860673e-01,-7.279198188624325105e-02,-9.931416637639806089e-02,1.213339015539995763e-01,3.352264286137663363e-01,-2.017124674506462767e-01,-4.643754811206025623e-01,-1.901884654257382234e-01,-2.432795197284240707e-01,-2.494214437478946556e-01,-9.373550361180423007e-02,-3.110513311026490424e-01,9.091807356648179406e-02,-3.915483763517336180e-01,1.751010321244655388e-01,1.372938642680992527e-01,1.461174120340700822e-01,-4.535623920232053075e-01,-1.890509083614061794e-02,2.685340642208004502e-01,2.190076820769109589e-01,-2.128954127916895811e-01,-4.643383997742799307e-01,3.429799451062057886e-02,2.358211106720909389e-01,3.467462692606130825e-01,-3.452523844742391712e-01,1.042929583486175010e-01,4.684247028450171935e-01,-8.066493937986066176e-02,4.049925844356262739e-02,-2.616317581800906567e-01,4.096155898334629675e-01,-1.516870223018477182e-01,-4.433643656992772297e-01,-3.803603533692894723e-01,4.468061795122392210e-01,-1.821894993047321887e-01,-1.127606635800609547e-01,1.556210055751943155e-01,-1.597665900013854612e-01,-2.718066525907353870e-01,-2.080189431812242140e-01,-4.817601397845833744e-01,2.274764451790185216e-01,1.553918561929360787e-01,-1.069455510533296044e-01,4.691887323914682995e-01,-2.026262123759267064e-01,-4.178629291886314934e-01,-3.205669943296339808e-01,-8.657799845549395135e-02,1.576262321958634208e-02,-1.997474452712244830e-01,3.263036251596606041e-01,1.585414110042169394e-02,3.122753525253753049e-01,-3.341451747445873255e-01,-1.119312664960054327e-01,-1.438590054477728308e-01,-2.177137094206293283e-02,6.486555034714041289e-03,-1.078109736285486897e-01,1.913291561603507329e-01,-3.147827399102150481e-01,1.397871801769287881e-01,1.120947745054729078e-01,-4.745672673745811032e-01,-3.912653198837823809e-01,-3.057090425971567549e-01,-1.251909745815065096e-02,-2.169788249284843040e-01,-3.764837101846751355e-01,2.294653867310548212e-01,-7.583527302118268920e-02,-3.200425502309890979e-01,3.098749807843535070e-02,9.793480703691172240e-02,3.257131967329190414e-01,3.732874317881376136e-01,-1.678232748163973331e-01,3.940989477376896644e-01,-2.352491355564667319e-01,-5.800842577135068706e-02,-7.618622939927724436e-02,2.558857472123876597e-01,-4.690653483394904288e-01,-2.598189920101554584e-01,-2.962587150036273820e-01,-8.769349129060104468e-04,-2.893601945575292600e-01,-4.445427009887636394e-01,-4.831731614897651905e-01,1.531279238156066543e-02,-1.374898022667419839e-01,-6.311309676220679121e-02,-4.125334172417819967e-01,-3.512224537711466366e-01,-2.638611223121238303e-01,-4.655624663306114353e-01,4.575141973706517984e-01,2.447722755253364801e-01,3.312360192306069810e-03,1.936065072266134890e-01,-4.100106415232809276e-01,-1.289604236973599938e-01,6.422822173845758875e-02,-4.168437446405040547e-01,5.016177081993197090e-02,-3.085012509675931214e-01,-2.620589015074299977e-01,-4.442781343580405329e-01,2.080623977063265351e-01,-1.570290522772012712e-02,2.024144445762091349e-01,2.903909746520607627e-01,3.756591948293726557e-01,-2.812330677075831065e-01,-7.277661634455414794e-03,-3.470737791591535504e-01,4.399369455647216265e-01,4.829743044577610167e-01,2.380220902250806958e-01,-4.539914840670762897e-01,-8.096013313178367088e-02,6.705551735167700200e-02,-2.077553317585900117e-01,3.560678309052996426e-01,-3.000601491069140175e-02,2.197569147826298197e-01,-4.183463029099876440e-01,4.080317181543204746e-02,3.905593285473141774e-01,1.722627395939539119e-01,2.036239193183638774e-01,-2.015246055889292620e-01,-5.331417057867983422e-02,4.822780662510012806e-01,2.772833428779744036e-01,9.538117911695048745e-02,-1.711357754342385795e-01,-8.421820550177974707e-02,-3.870561143593306275e-01,2.141345325438521185e-01,1.535120468645303216e-01,4.706308275259625251e-01,4.762547501089049035e-02,-4.915869553966747962e-01,-3.007463167274158078e-01,2.299887871819075447e-01,4.934509140390574422e-01,2.712248821027678572e-02,-2.989139772866791778e-01,-3.880285556520722545e-02,-4.446706054600801372e-01,2.643050692109646382e-01,4.317097634467722544e-01,3.312242090170404718e-01,2.367271423801177999e-01,3.444141612460479562e-01,-2.847628726763334894e-01,-2.605780826662240646e-01,1.047156933004713131e-01,-3.481547398150905970e-01,2.890326265057083233e-01,2.259487492120298702e-01,1.478419282447522298e-01,4.490456144803132155e-01,9.619447213241752448e-02,4.394792548510270680e-01,3.550810093285612368e-01,-2.836812847179673858e-01,8.750882937091114533e-03,1.263048248160526521e-01,-1.503661699897968218e-01,-4.062450755429294902e-02,2.869548029459884630e-01,2.406533472012099828e-01,8.228507917428629082e-02,3.533646302388612215e-01,-2.543810423046047875e-01,1.125182608331240092e-01,3.557206652869387420e-01,-3.564336876762296824e-01,-2.060782067297309006e-01,3.181728780870644174e-02,-2.899560965472181007e-02,4.747619147224997338e-01,4.976020896265439530e-01,-2.387156298020879641e-01,2.061300904197681597e-02,-2.902549780113075073e-01,1.156528891010114440e-01,-3.794172972053372339e-01,-2.686051637091305816e-02,-3.000462944793987341e-01,4.962005638151193998e-01,2.274171523391286531e-01,3.633097158587655223e-02,3.121008995252676915e-02,2.227963636995021479e-01,3.853113553054520746e-01,3.884579350187036817e-01,-3.813395377078483417e-01
2.392251830616007047e-01,-1.551457280500909419e-01,1.573201431891421698e-01,4.475995688134617838e-03,2.054209333774740728e-02,-3.110064941102982927e-02,3.501417477297275038e-01,4.453788560667744645e-01,2.018947598183134795e-01,-1.056936083302116025e-01,-4.486700471901138298e-01,1.273807333792053575e-01,3.483528929524824513e-01,4.178692745791296459e-01,1.819206716579455652e-01,-3.020317185483127886e-01,2.281170069594038452e-01,2.319922329494928936e-01,3.306543443730223797e-01,1.995900650519453479e-01,-4.001830417072210766e-01,3.158554778271439965e-03,1.840073479822079694e-01,-1.938292924338646250e-01,-2.046370791101145004e-01,8.811101090012705972e-02,4.892621237844400617e-01,4.863965391378088921e-01,1.218444827008566128e-01,2.215064217532180524e-01,-3.349394530304410922e-01,-4.661985444303896609e-01,4.426370754190067092e-01,-1.964869916710233200e-01,-2.919096072089569227e-01,-4.494885580653837365e-01,4.168688375654544531e-01,1.715862000373635232e-01,-1.933935954388195655e-01,-1.146714219023875839e-02,4.526773972906020238e-01,-1.818168668718539438e-02,-4.008904090346018800e-01,1.416561872413460987e-01,1.271998885560741109e-02,1.025667503448535103e-03,8.732862017166194424e-02,-2.295926469345186405e-01,2.276458022732333053e-01,-4.009029913340866336e-01,8.153519524871710722e-02,-2.319154238758110997e-01,1.546842520665084875e-01,2.518291652709720996e-01,-4.116863868090798184e-01,2.080821514250269233e-01,-3.486910239408613776e-01,-3.760451070903665372e-01,3.037252035367941638e-01,-2.509414480609879483e-01,1.210327205176710968e-01,1.630138247640576521e-01,3.656643965800914775e-01,3.708226358440349646e-01,2.857033649221190075e-01,4.454300241646575453e-01,3.637896454580182293e-01,4.604687166030819734e-01,-4.343902630721483415e-01,-2.941088245633361464e-01,-1.458481769152523144e-01,3.567707452849274707e-01,2.633190466241732142e-01,-1.058974386879456137e-01,-3.279633405415556813e-01,1.471633790957294075e-01,2.012512830557123544e-01,-3.253789271799937266e-01,1.029269424737018906e-01,-2.718640754800480397e-01,3.788043801605584515e-01,-3.357385636886579539e-01,2.420381208748583202e-01,3.919972878976037411e-01,-3.274633187876775930e-01,3.203067872969160568e-02,-4.771545439328018223e-01,4.675182359389328246e-01,-4.075963098418629582e-01,-4.011110637363084208e-02,1.647605471615819217e-02,-4.441724120814722898e-01,-2.568551868838399033e-01,5.082856605441186948e-03,-5.105580866327044665e-02,3.711503660874204136e-01,-2.966514765459779546e-01,5.585259757152596927e-02,-1.789472343819623890e-01,-1.582366267403834126e-01,6.845064340458515426e-04,-1.381651346416791770e-01,4.742015746717787028e-02,-2.249911769799350092e-01,-1.945534951242834931e-01,4.454524268562576328e-01,-2.281102659927905785e-01,2.778405969343307746e-01,4.061615465966744026e-02,-9.411465395006274326e-02,-4.145529297494064958e-01,-3.279486317947162832e-01,-2.425791794611378283e-01,-1.203487121138152871e-01,1.110099703798753806e-01,1.652119060313164967e-01,-2.349673221747550500e-01,-1.084358549388288705e-02,-6.134533764386902732e-02,-3.369513887022452248e-01,-2.509437522384262431e-01,-3.623985305377550592e-01,1.403648582335496886e-01,3.139420702283876596e-01,-3.626962033354217407e-01,-3.534683798703250335e-01,2.541450827704313520e-01,6.681832580010146905e-02,4.366153231588889572e-01,2.123689497916190216e-01,-5.065971054554551101e-01,1.355763726263460867e-01,2.118789805133275972e-01,-3.375840819631626966e-01,1.914709875578770037e-01,-2.251361362903691044e-01,3.521097975264244062e-01,1.976035772587677597e-01,2.417332541837821369e-01,1.106191798327786913e-01,-2.564218940837906247e-01,-2.460399558418336352e-01,-2.506430294519960134e-01,-3.323135511916385787e-01,-1.954030523864474511e-01,-4.784397210129215927e-01,-2.968296933605371057e-01,3.942576583305480997e-01,-4.579451354314127975e-01,4.024350335935291539e-02,-1.502599628065668380e-01,4.521659714087582493e-01,-6.483820478125405795e-02,-1.495699026860107805e-01,4.232282567057735201e-01,4.025049105544572514e-01,2.544820559790897385e-01,3.687265796976919585e-01,-1.194238690567498706e-01,1.604615892450565739e-01,1.258963769572248315e-01,2.503410687877177243e-01,4.618278916422621228e-01,8.855527735226413621e-02,-3.056615129474060111e-01,8.807572301480234844e-02,-2.798105275379579870e-01,-2.863472777451627760e-01,-2.389546934826758673e-01,-1.384044847291921454e-01,-3.508878116935571501e-01,-4.717610090693087899e-01,-4.766662186741345009e-01,-1.489387132751150700e-01,1.923944362710802436e-01,-2.502780286627596107e-01,-3.764903834131840821e-01,-6.934339514663273585e-02,3.243113485871063073e-01,-4.425985103749678351e-01,-1.736746682029249589e-01,3.638515741546066162e-01,1.287684918670631284e-01,4.377371033938573519e-01,-3.169896728488718618e-01,-3.680154907879941706e-01,-3.290305569933246188e-01,-4.536207275319684151e-01,-1.986605978132084116e-01,-2.847252092752876607e-01,-1.152472604306608028e-01,3.972524309264641729e-01,-1.388481508557479205e-01,-3.314464537663421306e-01,-3.087283556875256019e-01,1.540716935234412999e-01,-4.636452628346022231e-01,3.149209733576276982e-01,3.124954493834466440e-01,-3.516035591342885347e-01,3.479437962147260421e-01,-2.247449950594479218e-01,4.783857248765102654e-01,-1.023636665182802580e-01,1.861901791240392345e-01,-4.962595765977624862e-01,4.621111046683776258e-01,-9.630413629285795862e-02,3.465976375861045677e-01,2.640546741694095312e-01,-8.593014825866210349e-02,-2.596684721342293889e-01,6.936328433572645780e-02,-1.262788007919672661e-01,-1.865120200162684663e-02,2.074432362572574684e-01,-1.859369812712147463e-01,2.264512604980524757e-01,4.840644740375898425e-01,-3.653751297591064096e-01,4.816183543582203130e-01,-4.465799225265803529e-01,9.008401188600502485e-02,-2.471366429786024058e-03,-4.145025469918002248e-01,6.945169114887746187e-02,1.714830453317770786e-01,-3.507552171234629146e-01,3.279430208739493313e-01,-2.162885647160289748e-01,-4.361010070833877816e-01,-4.831579444788293154e-01,2.051588674106608057e-01,2.834533837876021534e-01,-3.385229036069739017e-01,5.996107505781197999e-02,-1.120599305568762555e-01,-3.274813876851381256e-01,3.679344507864241165e-01,3.263562118554297342e-01,-2.211692845155740494e-01,-3.421901888309336615e-01,4.018441017196565657e-01,4.856878873635226967e-01,2.520306473943704217e-01,2.388067037412664184e-01,2.711400289982048850e-01,-2.940554206430580630e-01,1.326907530530083840e-02,3.149485443986790312e-01,2.680786675488264215e-02,-1.493263708552759056e-02,4.084970763278602535e-01,-1.385464048835741702e-01,3.720315107996633452e-01,-4.140872819514813119e-01,-3.986363475378910115e-01,-3.168945330054541432e-02,3.765206910306292953e-02,2.054360125927664760e-01,2.255611517211130596e-02,-3.291238304246760921e-02,1.669421399398027805e-01,2.629469069044807483e-01,-4.580791140438361109e-01,-2.865692324345932573e-01,3.990252848803029218e-01,-2.031531651274348094e-01,2.807793611718015780e-01,-3.637109009385345315e-01,4.902156514541762544e-02,2.171651058496090470e-01,9.183967491250573378e-02,4.714339952040497717e-01,1.990832160957043961e-01,3.018100392879384808e-01,-1.531656946239070248e-02,7.713740526405908626e-02,-1.439985639643888704e-01,6.167387013297547654e-02,-9.925484862963745991e-02,1.443915049092626413e-01,-3.813266008081382941e-01,2.474166420288312351e-02,8.638067675736879614e-02,3.540899545445816976e-01,4.737407819182338775e-01,-4.782337435347212007e-01,-3.485107367905479481e-01,1.541045787401176814e-02,2.096998260220406529e-01,-4.695297303023031055e-01,-2.223939914285211206e-01,-5.013303928297782042e-01,3.489169480926976874e-01,-2.949822967515510763e-01,2.550432592366092543e-01,3.629857693763381687e-02,-2.750313442987464274e-01,2.154769817845631485e-01,-1.689344815214055828e-01,-3.664440197394283616e-01,-3.606579149547085028e-01,-1.059005228848900887e-01,-1.878004906280932029e-01,4.721475279527163060e-01,-2.469692325851507164e-01,1.039629784982367376e-02,2.853532546274805126e-01,4.384991953474729476e-01,3.772731448322033665e-01,1.752704843000460477e-01,1.685831469724733550e-02,1.099375531542876594e-01,-4.641611047775182630e-01,-8.774860684105290076e-02,3.609608747882822599e-01,-3.274634025749530997e-01,2.203907787000982527e-02,3.168689374345259879e-01,-5.022546143420950626e-01,-3.743378664795323219e-01,-4.464470520632635164e-01,1.315454463021900437e-02,3.936996439398438574e-01,-6.377874822841851643e-02,4.465349883708030765e-01,-5.773527289220791586e-02,2.769055426110602625e-01,3.005059782956713832e-01,-2.819698055080431254e-01,3.890307380019951689e-01,1.441237327210962704e-01,3.915222837956485180e-01,-3.900209627420915814e-01,-2.167305685583598152e-01,-6.634121207503630713e-02,2.105055955116833522e-01,4.941710436319946553e-01,4.966448928839149735e-03,3.082089258518389552e-01,1.454320554011404587e-01,-1.449886901590121957e-01,-4.454509944876853811e-01,1.254636237293295098e-01,4.156978684059188800e-01,4.190656355137413747e-01,4.726218479122814564e-01,-4.493330164979958408e-02,-4.135401613850730462e-01,1.437635134037768270e-01,3.306450767694605886e-01,-8.565654145756593230e-02,2.984031039049201417e-01,3.765174098196292229e-01,1.902237348258253025e-01,4.220854505687024472e-01,-4.259069441660053856e-01,6.253071274727792228e-02,-4.585529266298131734e-01,-3.866421114879866616e-01,-3.958622810697303707e-01,1.382895672851653102e-01,2.998058450930570773e-01,-1.588182124937306816e-01,2.298652680468733778e-01,7.885620071102644735e-02,-1.821353658558728661e-01,-4.122915502826831613e-01,-1.666152837761204486e-01,-3.510664589636942612e-01,1.833686150253383829e-01,5.135425727515029876e-02,-5.368279975971290002e-02,8.585987585820722967e-02,-2.074529786526573272e-01,6.480780713149116024e-02,-7.398513385419862309e-02,-2.805147117221042374e-01,4.240796120364090926e-01,-4.796721589138481789e-01,3.802732107292549624e-01,4.437619112564641921e-02,-2.890553672294213783e-01,-3.360897518099931203e-01,-1.504029592579800845e-01,2.240416300558726453e-02,2.172385542020930094e-01,-2.989901117036750100e-01,-5.943052177621054727e-02,3.664557492420629226e-01,-4.578732241842902589e-02,3.828984659279448532e-01,-3.791424075694272422e-01,2.686640620779529032e-01,1.766412160596064762e-02,-3.862089331625145894e-01,3.144565720062580394e-01,-5.096211774266555528e-02,-2.450194895081991842e-01,4.678886786494738104e-01,-1.409910728111116451e-01,-1.809886490450409724e-01,1.823165590644258705e-01,4.479882976856133098e-02,1.789385442352716404e-01,-4.106913885159306221e-01,2.393599445236699597e-01,4.355309018945785482e-01,3.593385131177561642e-01,-1.555325940677556307e-01,-5.219503788741475941e-02,-1.978581492785670137e-01,9.884355242227056693e-02,3.043674363458661603e-01,-1.472839408326621358e-01,-3.977931131247054442e-01,3.284020487209239614e-02,-4.015592575482654358e-01,1.202791213477416576e-01,-1.671079426012708202e-01,4.274352685385224282e-01,-4.647374277242852791e-01,4.306491629517484321e-01,2.906952178026220857e-01,1.319286233394634800e-01,-1.772904840978576646e-01,-3.113041802059020036e-01,2.295254529063369964e-01,3.689771773907183361e-01,3.832264283510003477e-01,1.415011739629075393e-01,3.923391559662716133e-01,-2.735858955469172571e-01,1.299302639317781449e-01,-3.604830167050160905e-01,-2.394468219186491609e-01,-5.442737162898592801e-02,-1.201625395766978133e-01,-4.798929881584268475e-02,-1.610204237802377036e-01,-1.193830327044185791e-01,1.892184311621253057e-01,-1.543993518494477142e-02,4.319376286197634807e-01,-4.732412325703581196e-02,-3.195085634340549263e-01,-1.066855169239342427e-01,4.563530455219214632e-01,2.666777533627167629e-01,-3.346669381551047734e-02,3.722510903254755421e-01,3.829150379400058594e-03,-3.320787090659054197e-01,1.752181083877340506e-01,3.391851559702442898e-01,3.919833001638201031e-01,-4.544793211350321993e-01,4.978701274379417896e-01,1.625881723566042214e-01,-2.108700446853231658e-01,-4.000969094237450396e-01,-1.115542211127631689e-01,4.212546352800479177e-01,-2.846216576250556463e-01,8.418528420008997148e-02,-2.995678855088130255e-01,4.379835156318679923e-01,-7.732288214923112649e-03,1.912075608870615062e-01,-1.019737107158717321e-01,-3.000251925990307655e-01,-2.394558919188306129e-02,-3.908345397885304995e-01,4.484055897457464579e-01,1.115724185937216201e-01,-1.019284883626000587e-01,2.789195085693765286e-01,-4.948139114010120521e-01,-2.557432200989904758e-01,1.385219448720299840e-01,5.145730791688044037e-02,-2.820516795872067273e-01,-1.139860607290620748e-01,3.234947404758545253e-01,-1.250318315383229517e-01,1.386257041059576756e-01,1.722486780820939589e-01,4.444930592289307869e-01,-1.337966920051452402e-01,-1.307884791387391443e-01,-1.365661182467221291e-01,-4.439306803150467329e-01,-4.335756336869920347e-01,2.423223911981845502e-01,2.879147258795134445e-01,-3.823355919489350718e-01,-3.121968781589209291e-02,-4.217644492018338687e-01,-6.084225408275673042e-02,2.673846184558418063e-02,-4.047051577042370396e-01,3.113666114471596025e-01,-1.678055397368483359e-01,-3.542950092705030030e-01,4.930241371730389455e-01,9.338411201560524455e-02,3.059494261866458342e-01,-4.688046439236237539e-01,3.145282509350373346e-01,4.835020798302552825e-01,4.606010045595447244e-01,3.519302556353110512e-01,-2.727315903478164660e-01,4.464804317132848865e-01,3.774289522505311356e-01,1.884618919133544679e-01,3.772545365945364493e-01,-1.431876029492943625e-01,4.056840392991962196e-01,4.749331694041041690e-02,2.200140737797932344e-01,-9.274959988668414479e-02,3.933641437535839724e-01,2.769073575745842342e-01,4.630454949668269538e-01,4.090004668693034695e-01,4.371847538675397438e-01,-1.865772767377023578e-01,2.792974688918181125e-01,3.325038329815585558e-01,6.128651682015403418e-02,2.033595164033594749e-01,1.198785141517692554e-01,3.426695678487072794e-01,9.780767771528502130e-02,-1.338129580717993816e-01,2.155995788188379558e-01,-4.085731207637384177e-01,2.377070238138642710e-01,-2.652132460085926957e-01,-3.388333887732360439e-01,-3.391487330552587776e-01,-3.601937203185686664e-01,3.370771240095382648e-01,-4.866427030205081605e-01,2.475816767290606457e-01,-6.859690797990708466e-02,2.318936251359172696e-01,3.284383212232360738e-01,1.843598208705290731e-01,-9.498945070906500421e-02,-1.377792159458372245e-01,1.580262604059855247e-01,2.476866398535805536e-01,7.029512957697288573e-03,-2.828455217968481317e-01,-2.217558846109952408e-01,-4.682036610371018148e-01,-4.444397535061730409e-01,2.860900648315774508e-01,-2.095998462362172465e-01,-4.256507656041446652e-01,-1.160809532995080717e-01,-1.200926920037497375e-01,-1.296580430093680625e-01,-2.879053728433483145e-03,-1.534987773340204253e-01,1.130027519455785584e-01,8.324925849616071627e-02,-1.085080344922377121e-01,-2.013315476571551910e-01,-4.530098910952794211e-02,-2.499256829009604830e-01,5.594301000154455750e-02,-1.955058721809868616e-01,-4.427650113209396499e-01,-3.393456676021091578e-01,-3.399574074133380752e-01,-2.937637180429818473e-01,4.395432355887131659e-01,2.198993606624158673e-02,-1.573288980588936903e-01,4.129316964813167790e-01,-3.004355737359554746e-01,3.430631786607523104e-01,9.716076251497171579e-02,3.159129710211963649e-02,-3.466869515160592163e-01,3.678945293959794832e-02,1.674139969982076440e-02,-2.466755860342626228e-01,1.206797886601227998e-01,-2.824563607335324189e-01,2.951351190298621280e-02,1.047880172986521419e-01,4.281769839168411695e-01,3.789833981473563762e-01,1.270310308729657167e-01,5.050558789183494657e-01,3.229056026316876604e-01,3.900553577922778459e-01,1.223461162275292918e-01,-3.622540147709612524e-01,4.023088740512858474e-01,-4.301955296458063738e-01,-4.880653400351841475e-01,1.056164279589919125e-01,-3.777870294204914714e-01,4.189772872942637560e-01,1.592790144816018938e-01,1.556363634245658267e-01,3.215200270398484994e-01,-3.074959434982524886e-01,3.110772337862784814e-02,-2.929665817888049140e-01,-1.237501837740477215e-02,-2.273859767978726187e-01,3.735838576069519523e-01,2.857460750651976134e-01,1.149431887377306838e-01,-3.093310546643557868e-01,2.190571244956525943e-01,1.117598023099739268e-01,-1.117179561265236806e-02,3.934645898986730561e-01,-4.745048741656427982e-01,-4.048293876556308124e-01,-7.069322928655802363e-02,2.346005624420061664e-01,1.795097808744757217e-01,2.742233376018938795e-01,-6.824979959632639093e-02,-2.824837354932265843e-01,1.319954094103625020e-01,3.100873639702372286e-01,-8.633650175606306931e-02,3.986112582937949012e-01,-1.094344292833253351e-01,2.744088832629970609e-01,8.493103530625269182e-02,4.999919004207897255e-01,-1.556194857991796687e-01,-3.885433997179841281e-01,-8.335668477396675213e-02,4.848950605753216125e-01,-4.025832888124089570e-01,2.061745271491801645e-01,-6.514302040854019760e-02,8.282225969071493887e-02,2.604818321423581912e-02,8.523340430984853444e-02,3.521946681624303355e-01,3.855078538946501987e-01,-4.311106974755767318e-01,4.179188956152186663e-01,9.058122215650581122e-02,-1.482502272437019597e-01,2.499578955339001041e-01,-5.326950374359013668e-02,8.580680108022741004e-02,-2.371492911888807287e-01,-4.839788807301476092e-01,-1.794020723105569093e-01,2.311033791133262627e-01,3.763150619497535598e-01,7.129650413838932443e-02,2.040072225351368673e-01,1.477101639545980449e-01,2.752396432063778375e-01,3.658801427850630894e-01,-3.742195837321913299e-01,3.962502262914933127e-01,1.328873417617111308e-01,-3.572309663655288958e-02,-4.513843268469329428e-02,4.805635662725092350e-01,8.793774984093095937e-02,3.209678528085520011e-01,8.440795863432602741e-02,-4.622401256108560341e-01,2.379766575563362629e-01,5.645436965313481437e-02,-6.142428142350456893e-02,1.623281939904011317e-01,5.447117551661945917e-02,-1.329160246864647399e-01,-2.531169648032502439e-01,-3.461646133930705860e-01,1.222517317313248225e-01,-9.669573146857894652e-02,-5.053066558185698165e-02,-3.458200475998108869e-01,-6.924955087533367359e-02,1.516031628051015823e-01,-6.478529345867520273e-02,-4.806676156792267784e-01,-2.471011679333647570e-01,4.136381272805249587e-01,-4.844064571105414219e-01,2.850856261614948539e-01,3.592954035977110605e-01,-4.744246595970576519e-01,-6.699853789759491196e-02,4.289738680891868050e-01,7.827019616118145728e-02,-7.887447691379610715e-02,1.669652891093805769e-01,-1.987171931173023764e-01,-2.411230734624800476e-01,-4.190417179578355689e-01,1.613691514160247586e-01,-1.268433701288643189e-01,-2.547231738490323139e-01,3.600614312131314998e-01,-2.546840033979069773e-01,3.934204973235426173e-01,2.805633758806994754e-02,2.521942267785075575e-01,3.025245494214821029e-01,4.433745357970416689e-01,1.602702402948454896e-01,2.169874179080756582e-01,-1.529178610123912707e-01,-1.903794519810726171e-01,-3.446247841246831145e-01,2.633657844477640952e-01,-4.357684953682720158e-02,1.426858295599503501e-01,-2.065559181509202258e-01,2.860877729554174298e-01,3.596529027524670297e-01,3.851567187811332227e-01,-1.564153034579201240e-01,-2.901719589822896461e-01,4.868975977459166216e-01,2.107945661467593435e-01,-1.313333611178050531e-01,9.187044521163674829e-03,1.808707194046604017e-01,2.477536347316647292e-01,-2.726348970587004136e-02,4.840146324613157081e-01,4.701557338483104975e-01,-2.343116357771219682e-01,-7.825443803201631576e-03,-7.342428077146606613e-02,-2.781672643695434766e-01,-2.998927831484503315e-02,-2.994436518878644815e-01,-6.376247864066438009e-02,4.954459853240225642e-02,4.332521337050868615e-01,-1.109185751760317223e-01,1.034502632660125876e-01,4.098021927606336767e-01,4.115830198182234279e-01,2.929656443990729109e-01,-2.574304864948353533e-01,-3.847565950997605122e-01,-6.500886159439001055e-02,2.995721306519453231e-01,3.558530015339060326e-01,3.718657532194113435e-01,-3.824130543108901770e-01,1.405388596885478736e-01,8.648075349345858698e-02,-2.754665863102271905e-01,-2.429866006445132176e-01,4.488232689117826468e-01,-4.012549638660867224e-01,1.019594472095997767e-01,-4.838377588982235022e-01,1.488964143948159069e-01,-3.590169230650162024e-01,9.814054905093343162e-02,3.694500659677544263e-01,-4.859957394886195714e-01,3.421811482828430173e-01,-4.220317102552716970e-01,-1.245569068741609609e-01,-1.793930985624444252e-01,1.343160511389795420e-01,4.669378316510438554e-01
4.863198440089875341e-01,-7.263835214334209145e-02,1.564848061165293458e-01,-4.303901923956541253e-01,-2.885918439663059942e-01,-3.500223311872301402e-01,1.796576145966144455e-01,-3.146316619671229442e-01,4.728531093885653125e-02,-3.740871265604607254e-01,-3.457572819761320915e-01,-4.100655803735406835e-01,-3.356540008012652843e-01,2.560008835733734722e-01,3.219857684431177702e-01,2.211354158081933197e-01,1.053516824370133997e-01,4.167362613385189318e-01,-4.148563719477632583e-01,3.473067388479301743e-01,9.445853257021204208e-02,-7.056704489792836599e-02,-2.908950639760635726e-01,3.075018843956229264e-01,4.923871453714644408e-01,2.354761737190984583e-01,3.526667125672486303e-01,4.908896486587205898e-01,-2.545998888829764106e-01,3.997189180028379307e-01,-1.051023390684021758e-01,-4.168763627472737987e-01,3.379675818076948723e-01,3.938453305511492863e-01,4.596578408829934959e-01,-1.076253780865803894e-01,3.600332140896572164e-01,-1.369704135571749304e-01,-2.619103224992602730e-01,-1.001090901788256327e-01,-3.484499321131648286e-01,-2.328931518406798448e-02,2.552909438128549979e-01,1.529099098357448172e-01,3.673510548622500038e-01,3.012703621428192147e-01,1.387623203264128080e-01,2.040617258402128986e-01,1.893713227080953965e-01,-3.698206666526591135e-01,-4.555022534325966488e-01,3.622708946694166987e-01,-3.221053116605828714e-01,3.103728036776131627e-01,-4.693718222571850035e-02,-3.428720806602194027e-01,-3.699743856573809997e-01,-4.933073890390027305e-01,-4.019888972127669824e-01,-3.503561145400940768e-01,-5.685746180248962139e-02,4.318307786880126731e-01,-3.492955223745344839e-02,3.186095528131370758e-01,-4.386156229321059308e-01,-1.558215333972047811e-01,-1.946609358970261827e-01,2.551234590351427606e-02,-3.388756502651857905e-01,4.097672997386770932e-01,-2.961087450879290039e-01,1.984075213038506980e-01,1.891408149550583284e-01,3.609001531038583677e-01,-1.574916766548875025e-01,8.754246350030425727e-02,-4.384706413893521004e-01,-3.059052174051228312e-01,-1.492785787031102318e-01,1.663189070837378380e-01,2.723236992968158104e-02,4.332099478237550483e-01,-1.238091291654681708e-01,2.563111699364903004e-02,4.300843718359514400e-01,2.910652666436754910e-01,2.049714107170670097e-01,-4.793555433995586035e-01,-4.708802172119456314e-02,3.695551783139499613e-01,4.087642879015534469e-01,-9.639556587172831703e-02,4.328877397751859646e-01,5.961662848266269243e-03,-2.392174621770771781e-01,3.411887947254532705e-01,1.207707251433660367e-01,-4.088097534718465043e-01,-2.559061881451032971e-01,-4.629962362226450745e-01,-1.532370217793637968e-01,-4.460903519158537223e-01,-8.486715140783256117e-02,3.427352928037914470e-01,-1.595122272444460254e-01,3.446598750293576319e-01,1.767476567430334711e-01,4.253640347146768197e-01,2.665946173163816213e-01,-8.064848134800415083e-03,3.571093607842596440e-01,1.623837246509062665e-02,4.481511320107655627e-01,-9.273380621778082311e-02,-3.067289181708903190e-01,2.479603016356644873e-01,-2.711590624303620856e-01,-3.596437851898769966e-01,4.890358557441653042e-01,1.841184154153932551e-02,-3.582365163600013669e-01,-2.070452366912059194e-01,2.440872690648625276e-03,-3.031362132274384447e-01,-9.272907984909187782e-04,4.502850101509403014e-01,2.402531926497960546e-01,-2.077752253218407286e-01,-7.276246197404732940e-02,-3.419065595395617274e-01,1.189282691385357832e-01,-2.079459755662188547e-01,-4.371601138587036806e-01,4.285719789745219277e-01,3.071847230671134743e-01,-3.648108112178912177e-01,1.967308486030223610e-02,5.160041423699292251e-02,3.775927483633467197e-01,2.171281443232332131e-01,-5.271287233493287400e-02,-4.037421911200682612e-01,-1.639001897207399139e-01,3.692930553105754857e-04,4.770770653698088171e-01,-3.659528931764345350e-01,-4.008020226173028000e-01,4.379933087530971103e-01,-1.132576833653327689e-02,-1.335348726685949561e-01,-3.095053220060138832e-01,4.947335516901502084e-01,-3.999090464311976789e-01,-2.954795160316559532e-01,2.519170842952328515e-01,1.986439248806876057e-01,-3.503762331938479746e-01,-3.211100718433121948e-01,9.084128925236577279e-02,3.469004695858560749e-01,-2.698016216121406075e-01,3.619922524020178223e-01,-3.727143329827867224e-01,1.749270638156179558e-01,1.680540491809275894e-01,-3.058026674113717425e-01,5.004644363441183019e-01,2.172090030794403548e-01,-4.869230248636262637e-01,8.179279319828081096e-02,1.363664813825082867e-01,-1.583534092927301185e-01,4.156521413199704695e-01,3.770181460401714202e-01,4.593989233491440061e-01,1.823919845568755527e-01,3.328058383564260758e-01,4.710886374972465540e-01,4.037001616606435972e-01,7.651152420581171058e-03,-5.177007442527102599e-02,4.747159591189263339e-01,-2.241246957695192665e-01,1.618931300123229722e-01,-3.986261686722621378e-01,-3.606452979168987549e-01,-4.553690892545507185e-01,-2.295411723558374584e-01,1.475806674279513397e-01,4.949890313095423044e-01,-2.082347517337652595e-02,-3.230038248714287574e-01,-4.484293401984055238e-01,5.449196462995562623e-02,2.879351504252474284e-02,-4.347341136515855964e-02,-2.131162511903025025e-01,4.832098834998353049e-02,1.043347318506639004e-01,1.182916679274538391e-01,-4.997826246442653719e-01,-4.038813639352414886e-01,6.535804478251992788e-02,-1.657489568145489867e-01,5.044546827272957668e-01,-2.394497559718265500e-01,-4.156789363661857889e-02,3.666785310380455964e-01,-2.247715090703645835e-01,5.057056410704914295e-01,3.884251311552221475e-01,3.030255666068173981e-01,3.476836577623726443e-01,-8.693096494440372135e-02,-2.437257040763803617e-01,-4.119531806149210884e-01,-3.688473357420349319e-01,-4.092282711050149874e-02,-4.297809024939732714e-01,2.871902461149755670e-01,2.897425441166173732e-01,4.650265428400592871e-01,-2.988510037355406879e-01,3.434142572902659785e-01,4.601765010832158803e-02,-4.628997013200081834e-01,-3.423041645196491234e-01,2.299607417654384589e-01,-3.308751047667377598e-01,-2.928933889799699153e-01,4.954939517822471440e-01,3.207768468102396575e-01,1.978146198527544197e-01,1.265582641403229791e-01,-3.242301727611675011e-01,-6.447002158573052200e-02,3.730742780989003693e-01,-6.060040513816573882e-02,-3.855280082422353205e-01,4.599388608016896085e-01,4.164739414319743732e-02,3.200431505279037747e-01,-4.516916295685725058e-01,-4.878375155825638576e-02,5.070475664306001162e-01,3.183391458736191115e-01,-4.606738772768019241e-01,3.595705024469551536e-01,-1.934708222230827612e-01,2.654863157258944284e-01,9.614113256216053061e-02,-4.429215194425177304e-01,2.794442128850576634e-01,-8.562728587478136977e-02,-4.775845517890422998e-01,2.374701369815244989e-01,-3.304122485787245878e-01,-3.671876237660154363e-01,-2.613144531184969921e-01,-9.731873565158026540e-02,-9.621161741598197037e-02,5.027708070190597400e-01,4.551298595616327103e-01,-3.486460991065330473e-01,4.149165101967666747e-01,3.935587864406264735e-01,-5.075064623288721988e-02,-1.638809465597563797e-01,2.805432637786298700e-01,-3.369582368352789115e-03,8.925538174270773728e-02,2.316800012897926309e-01,1.367416739088163635e-01,-2.016330180173686870e-01,-4.547910857582813660e-01,-4.664502131391494166e-01,-2.354542893220611943e-01,-2.934032163129527970e-01,-4.230621558029656337e-01,2.923824616615854355e-01,-2.463209657827873378e-01,-1.902053759077354800e-01,-1.551199027592770063e-01,3.694394822266786060e-01,-5.683999993334771794e-01,-3.752394567470570541e-01,-3.534065486153946667e-01,2.798131260326523484e-01,3.316770344205678955e-01,2.197103080182730428e-01,3.079517730185223345e-01,-1.227281932062558867e-01,1.865661540413822705e-01,-1.422161459619493140e-01,1.242620948253448793e-01,2.371940878091044758e-01,-3.688469496908337031e-01,-1.445616221260618076e-02,-7.733146977525150179e-02,-3.518732598191544048e-01,-1.397155846586195793e-01,1.579221684307163809e-01,-2.081303458045914434e-01,1.186025533667001558e-01,5.718316174506686556e-02,-2.875425721060377304e-01,-2.643068138810237833e-01,1.063684308792227969e-03,3.013924503431632540e-01,-7.699870788172921698e-02,-2.006793936389475175e-01,-5.774015269289202168e-01,2.285166521793670635e-01,-5.373991827397026078e-02,3.652677563200514288e-01,-4.095394432219082170e-01,1.201271400265513517e-01,2.682388381555959045e-01,-3.201508911425504644e-01,4.890024517815732552e-01,-3.854270080458371273e-01,1.251937606157825233e-01,2.043242533487179061e-02,4.435332481352987632e-01,2.757507421420921090e-01,5.251406861353915545e-01,2.576907517598476249e-01,-1.730345716910617337e-01,3.069006114442262567e-01,3.244965441075347012e-01,-2.168595602221304042e-01,2.044643130110304075e-01,1.420723018804242177e-01,-4.251164884395954857e-01,1.550046787688884042e-01,-1.304484146185322380e-01,2.717583884697256646e-01,-2.053606349737592540e-01,-2.975514056593057677e-01,2.655844174015513093e-01,-1.866574794844512789e-02,3.666105234452938233e-01,9.029981537658737789e-02,3.199521884358975665e-01,-3.449925959163275269e-01,2.532955391798484834e-01,-4.440377271414416294e-01,-7.560708867000293099e-02,6.400834837798105581e-02,-2.342498665364720067e-01,1.756513341584388099e-01,-2.410490663986766535e-01,4.164078158596210000e-01,8.853023819714533893e-02,3.613484667859833688e-01,-4.646893609962529648e-01,-2.804316209366327639e-01,-4.365704751467884559e-02,4.652576401527758754e-01,-1.207897091217087493e-01,2.877745512679880657e-01,-8.130858841000997150e-02,-7.294947743109400640e-02,1.968746317149331626e-01,-3.150734160729042888e-01,1.036582668679555536e-01,-3.532322360674527428e-01,3.705759949153340505e-01,3.901958414000572528e-01,8.594231093011545086e-02,-1.396465701424358941e-01,9.995829262257344139e-02,-6.455163212276407436e-02,2.713771596430614164e-01,-5.213168387553900746e-02,4.662069127932015888e-01,2.448011892138238776e-01,-3.671760782051681354e-02,2.343277108822100496e-02,-2.113156796956965344e-01,-1.321780006816676289e-01,2.599348790374827675e-02,3.559221117839047044e-01,-4.589771432909910132e-02,-4.251823578518612035e-01,-9.414921830578758255e-02,2.926626304565663750e-01,2.153760483666872227e-01,6.341890099666720737e-02,4.408533094333090888e-03,-1.664626169142881251e-02,-3.292926494216333877e-01,2.712489877898509594e-01,-1.919807026303987363e-01,-1.836882336220632128e-01,-4.175980350308471922e-01,4.169945172730881167e-01,-4.349596648300178559e-01,6.081176975960587289e-03,4.215537439211455850e-02,-3.477284360730460017e-02,-4.537007681440204943e-01,1.413152874059627473e-01,-3.513386673082040113e-01,-1.846216200968510690e-01,9.782793256009450489e-02,-2.685708288434499602e-01,1.880187051805359139e-02,5.210723287615114108e-02,2.232171702388130452e-01,-1.004102681224987720e-01,-1.326458960124344000e-01,-1.299474845952603430e-01,-2.917510058353336433e-01,3.146781317485340956e-01,-3.084483814065810958e-01,2.760490421841305109e-02,-9.522763230299356729e-02,-3.457140142577856401e-01,-2.514385690901655979e-01,-2.797086457040445229e-01,2.758858382940029830e-01,-4.669449242402133327e-01,4.017677335666417493e-01,-2.712142926482378757e-01,-3.948943085613159654e-01,5.652318533868620071e-02,-5.521009459556749377e-01,-2.614842115538456024e-01,3.905841847355033813e-01,-7.385356966074164975e-02,5.079403108132251460e-02,4.541988997398346273e-01,8.048980678800020383e-03,-4.856404182154523408e-01,3.812411519267984161e-01,-9.381257024363645614e-02,-1.353406838771539500e-01,4.092197998447691387e-01,-1.569187491816600999e-01,3.087276719380100953e-01,1.643994092462925383e-01,4.712040541519484371e-01,-4.435632023908601673e-01,2.244550473118873124e-01,-1.979549461326662874e-01,1.938548552253991364e-01,4.650930570535205533e-01,8.347907902050281936e-02,3.481014909475664831e-01,-2.246530835539205587e-02,-3.360418804075357979e-01,-1.541306866622669247e-01,2.149031512378744568e-01,1.021757001318725905e-01,2.271668506549128774e-01,-4.329048641503713823e-01,-1.635145368190711601e-02,-1.077286608001166712e-01,7.715226350654207088e-02,-5.145285174482682189e-01,1.316542492535373587e-01,4.114327666939975314e-01,-3.244401218433927703e-01,-6.780652978162129974e-02,4.561249138935169478e-01,-2.864325843981783137e-01,6.385758376835806716e-02,4.203666674392554925e-01,-4.536767599648563326e-02,-4.261334650765647991e-01,-1.869797774202797969e-01,2.124013423029183778e-01,4.643506607233898187e-01,-3.003910154438606955e-02,-1.249755920504201367e-01,3.828418024612759707e-01,-4.536052894358771348e-01,2.541260395563334495e-01,3.398071354221804952e-01,3.894063883360227019e-01,1.398110251396608994e-01,-1.523797811564790716e-01,3.871754763791407927e-01,-1.770104273486767521e-01,-2.384029632212422006e-02,-3.884501163088327491e-01,-7.264026186759200976e-02,1.202112466853110517e-01,1.924437228138212441e-01,-4.129627192244640921e-01,3.013355743623455929e-01,-3.066053748721230821e-01,-5.530185380889739155e-02,4.503593462316796692e-01,3.489410537832929315e-02,-5.157139435821450624e-01,1.867712840209952152e-01,-3.745064277409743680e-01,-4.574978189539463669e-01,3.368270957055437553e-01,4.679607160846335767e-01,-1.578981019038264433e-01,-8.446861582277410962e-02,-5.420522402321776428e-02,3.356186119157931191e-01,2.423114327414356561e-01,2.087652207990366715e-01,9.056769900717642763e-02,2.447627589599895570e-01,3.942486392014734609e-01,-2.602121180181730248e-02,3.224212475856838567e-02,-9.192068126207886269e-02,-3.209831001612941659e-01,2.462002184143502123e-02,6.533919816725508589e-02,4.340629793319604746e-01,1.308756867526043866e-01,2.758728733241276876e-01,-2.677788878445096499e-01,-3.282196648835052910e-01,2.064118234292753040e-01,-5.354148183346957302e-01,1.023670044532886958e-01,-1.128078177755654221e-01,-2.562056275284190776e-01,-5.139254608185098716e-01,3.613833468605012200e-01,1.299824317888894631e-01,2.212998504229084507e-01,2.181734464272984397e-01,3.235713806224839173e-01,-2.293600568608695489e-01,2.060634499469968517e-01,1.384226710412587713e-01,-3.423577538917880192e-01,-3.401288607603666359e-01,-5.549247766810325722e-01,2.332446871627803231e-01,-2.570591564813544116e-01,-2.932307121460621668e-01,-3.450802270994198784e-01,-2.601900751853388760e-01,-4.478152204619273435e-01,3.812508652431078060e-01,4.342660585635201298e-01,4.061718582887938883e-02,2.761422547385746218e-01,-1.514045151147229706e-01,5.743191819291354472e-02,-9.471051397098685654e-02,-3.873483516996279463e-01,-2.642047982206138235e-01,-3.592357278536443266e-01,2.096351402571617339e-01,1.369760096409670946e-01,-2.954312223328611764e-01,2.186326475087504162e-01,3.126396896901419975e-01,-4.801393793297357715e-01,1.829174436039613105e-01,2.094056452031353155e-01,4.512500830414836739e-01,4.113533202787647003e-01,-5.403239984170518095e-01,1.152048871920143547e-01,-2.080068277918827313e-01,1.609031316842078618e-01,1.757031614729340774e-01,-2.213712093174834139e-01,-3.120434762923289251e-01,-3.614498156755599489e-01,-2.066484444571269896e-01,3.450444104858078620e-01,1.704886966846574370e-01,-4.041934703454129196e-01,1.670120963286996218e-01,3.640848591251618083e-01,2.711303375026946627e-01,-3.574354506865137782e-01,-4.046216934056479642e-01,-1.442485514527562795e-01,-5.313746750963646015e-01,4.709513442159706659e-03,-2.279138471568199487e-01,-3.815307983541292858e-01,3.819419546197523330e-01,1.856372884985670602e-01,2.921762453461001496e-01,-4.145643210837997306e-03,-4.113886172746037406e-01,-4.300947144488627139e-01,2.656572140304718221e-01,-5.250651663590159002e-01,2.905228385547341530e-01,2.633156440935189857e-01,2.216148145650468915e-01,-4.365505844879419284e-01,-1.239887259018203902e-01,1.128147324053689893e-01,-1.640667743975616766e-01,1.357628414006058215e-01,2.617007286797136123e-01,3.504082149177539240e-01,-1.203261473476957139e-01,2.754929228788701168e-01,-2.162983543279782539e-01,-5.183577150087447238e-01,-3.630928474928550309e-01,-9.942169589002319841e-02,2.094780943899345049e-01,1.853076138665164796e-01,7.856687129535476488e-02,3.701652662327972743e-01,9.210061343147424176e-04,-3.889424659085007757e-02,-4.534486464954551321e-01,-2.599071048933079831e-01,-3.086665464866560904e-01,6.449888076499372958e-02,-3.314982129681917078e-01,-2.880035733856112223e-01,-5.073687744876679284e-01,1.090202396048297051e-01,-4.557236362615907921e-01,4.756300203512685010e-01,-3.043342470857959836e-01,1.735393829925017950e-01,4.624563493986792451e-01,-5.371020794726814179e-02,5.029389309793484975e-01,3.771280799438349041e-01,-1.622154512101412274e-02,3.424714433730211560e-01,-1.454086194359062098e-02,-5.064768456103986294e-01,-5.882281935579995735e-02,-3.974538999994225441e-01,-2.615477720682618870e-02,2.505603277991775291e-01,-9.750948099481210329e-02,-6.907950070759777406e-02,-1.309874951160522605e-01,-2.885511897088609001e-01,-1.428008528065774149e-02,2.586356692587171158e-01,-1.291018568809293166e-01,-5.470232787612813730e-02,8.996236640376582827e-02,-4.101638698005171668e-01,4.374948546956053952e-01,2.404552195834086803e-01,2.440053292097621174e-01,-4.910932259422828849e-01,-1.540897821262642853e-01,4.464083493260858071e-01,-3.160486469085836969e-01,-2.825180326442512657e-02,-4.011214482248278701e-01,-3.925073288234828817e-01,1.165894680581585630e-01,1.560379367936337580e-01,-1.512778234937720567e-01,-1.020172468242321606e-01,-2.391150716557413972e-03,3.869300977338221426e-01,4.009075048273764708e-01,-1.532034941286659069e-01,-7.215847323441117178e-02,6.391332595310299236e-02,-3.176516830776968114e-01,4.227254736415966829e-02,1.118420762669738028e-01,-1.989409179483702661e-01,-3.127330486554323608e-02,-2.671247549751414319e-01,4.192621537775368945e-01,-3.787752640579633012e-01,-1.243318556147121473e-01,4.111240863087963215e-01,-3.281281556272228062e-01,-3.207887797138311847e-01,1.010144043755862725e-01,1.449756815338613947e-01,-3.775134364282991227e-03,3.887512811704417759e-01,4.678138191336303486e-01,-1.062630534590054826e-01,-3.069714200184987529e-01,-2.575499287662082470e-01,-7.498331295943408414e-02,3.347976206119578357e-01,-2.139305584214536704e-01,-4.342738186572265846e-01,3.289682085371309905e-01,4.003031537170236853e-01,2.376471128425671209e-01,2.107770553218597798e-01,1.499670618813099265e-01,-2.056642484241736901e-01,2.449218924758569393e-01,-2.151190167514537566e-01,-4.539502586601658618e-01,-1.860835318052049825e-01,3.860130059952715520e-02,-7.703572865323954355e-02,2.115239162617475466e-01,-3.763407471738476340e-01,-1.856177453850184622e-01,-1.833002212720753754e-01,2.159529093806809019e-01,1.611853833450686280e-01,2.552752853462470981e-03,-1.531794328806477534e-01,2.770145559128244228e-01,4.282799305192298012e-01,4.148048181542540042e-02,4.183646671219878321e-01,2.483837789501650573e-01,1.054973915558209685e-01,2.795368627052826835e-02,-5.362586222750800186e-02,2.621032679463175530e-01,3.912566430745829105e-01,4.676460018581318212e-01,4.356862079990497794e-01,9.737107024539182198e-02,-5.010947046917501035e-01,3.255663290922349018e-02,1.821585111537888380e-01,2.310927282014420270e-01,5.020145604272354678e-01,4.931755699769255208e-02,2.361878895453125016e-01,-3.923029853366633013e-01,1.756531351981315547e-01,2.486946348519164796e-01,-1.087379786142113614e-01,-1.168951858126160842e-01,-1.003301631028260393e-01,2.600538899141240784e-02,3.723216273670778009e-01,-4.203507430346804519e-01,-2.247725855793306360e-01,-3.622743069538495453e-01,3.259301768340029937e-01,3.128561042209666021e-01,-1.277996588946666012e-01,-4.616989483804748717e-01,-2.374007364918503671e-01,-3.164786255096271872e-01,-5.225678916104464083e-02,-1.665872468446307972e-02,-3.894758020021086842e-01,4.736162277374489915e-01,4.441874543380098239e-01,-1.204311231987964803e-01,4.926097948253977954e-01,2.572672792749868820e-01,-3.701850070732516929e-01,2.238395376555232241e-01,4.825764082613798189e-01,3.250379569803909519e-01,3.420031633567976459e-01,7.670348949923429249e-02,-4.071548093415433001e-01,-2.016311102023769231e-01,-1.288127168419417844e-02,-1.121794379494193417e-01,-6.217905553450726874e-02,2.278157742030482991e-01,3.230557337186128891e-02,3.938699543947203896e-01,4.591750319229651600e-01,-2.930959740049656620e-02,-9.604641854322899797e-02,-2.938266255403180760e-01,-4.543463767613173943e-01,1.260346890870659570e-02,-2.061626819407169076e-01,-4.877489456691439518e-01,-4.256756110209832245e-01,-3.278580354211020620e-02
-1.087383107019905398e-01,1.042799807165427084e-01,7.713063404048593232e-03,7.965434523249359522e-02,-3.028042598152560494e-01,2.611286213431856518e-01,2.771399705317269535e-01,-1.822626379640719108e-01,-6.315179534548769069e-02,-1.490885228328950873e-01,-1.798467880623872139e-01,-3.470250445113459148e-01,3.293768955869720849e-01,1.060163872906638854e-01,2.282014992533045183e-01,-4.124660177832656371e-01,1.788305322519716800e-01,3.597992467613546075e-01,8.558347834923070441e-02,2.347920240113586798e-01,-1.567697327338339053e-01,1.439901308242897415e-01,4.757230573725225176e-01,-1.434053472806430252e-01,-3.948105630938166799e-01,-2.135019661486253217e-01,-2.374573879039434954e-02,-4.818622145632469461e-02,-1.263155808258850654e-01,-4.040925473447006255e-01,-2.719782913359904408e-01,1.274708426818261797e-01,-3.484815076000000178e-01,1.030085696424759695e-01,-1.658789814751044644e-01,3.500947766666198113e-01,-1.063333057851568453e-01,1.301356191671014795e-01,6.804874295856151722e-02,-8.635771819626369972e-02,3.346295439783441572e-01,-3.814832686061902511e-01,6.633957728212154861e-03,-3.926841002356068477e-01,-1.522931801800419815e-01,-3.319796001125815965e-01,-4.945903700482889853e-01,-2.950698870898431636e-01,3.491754588720225039e-01,-2.934838609038875057e-01,-3.221734866315421053e-01,1.959570283272647206e-01,1.876866276874746553e-01,-2.562326195721166266e-01,2.096924282794368766e-01,-8.445951474006946347e-02,-4.187792274084130018e-01,3.256343975609189006e-02,-3.616813403588498566e-01,-2.065295181135177460e-01,-3.275806664602485818e-01,2.499657352320123482e-01,-4.709123422287036509e-01,-1.153314086027150964e-01,-3.278710887601465340e-01,-4.000055180844869218e-02,-9.736443981949731430e-02,7.418944028137297586e-02,-2.791839127018042044e-02,-2.359248314404714941e-01,4.335418201092953727e-01,3.983376212640654668e-02,5.578098759948611068e-03,-3.046538418123860281e-01,3.934501112022582014e-01,3.835926649192301086e-01,4.971723377017766565e-01,-2.007000821389223755e-01,-9.862991642755856991e-02,-3.070781983201370524e-01,-1.704981598863197778e-01,-3.416700327084635780e-01,-4.302028188562728034e-02,1.411741512257332631e-01,2.663957092033156782e-01,2.742780002813607898e-01,-8.297911613801993436e-02,2.027604656545233253e-01,1.717222537737612409e-01,-1.615612578179682901e-02,-1.513514477845696315e-01,-4.765503617051601859e-01,-1.922055579078906506e-01,4.063573028206044491e-01,4.149111987043227479e-01,7.715393382111235959e-03,-2.663465823583619496e-01,-4.684314215928939706e-01,2.180266749913022661e-01,-5.092721858639761429e-02,2.172171104240578909e-01,-2.553115586037686957e-01,-1.987708675202051398e-02,-1.164267697789724519e-02,2.318021518303119144e-02,-4.665266104684421267e-01,-7.480961056231157091e-02,-1.947352896926027033e-01,-2.589790332367005732e-01,2.001394317310256910e-01,4.061554740913530526e-01,-2.726273917179284842e-02,-1.144590812229244470e-01,2.016925183790593268e-01,3.246794047520892845e-01,-8.781417424284619633e-02,2.929988306878044541e-02,2.497823623882425292e-01,3.786469582111831045e-01,1.579446166105120397e-01,-1.112765649208924124e-01,-4.977304143246579216e-01,-2.928811719273921033e-01,-4.667600067545514264e-01,4.167063422319223776e-01,1.255905596456117213e-01,2.202405181563523440e-01,-7.086473600575328435e-02,-4.765596619500849784e-01,4.492507191991095272e-01,-3.353806926715605097e-01,4.888131197599194788e-01,4.556372346098029880e-01,5.632246526461014147e-02,1.923752077911214942e-01,-3.027452820448138238e-01,-3.207417777417405635e-01,4.751666451285011528e-01,3.693742818414489509e-02,-2.285608258300749762e-01,-4.695015146510731485e-01,-1.022983740023173105e-01,-4.837488379672953420e-01,3.525525457619499425e-01,-2.366963692894845650e-01,1.447921357689811173e-01,1.173832349336463993e-01,3.956653183079580915e-01,4.482533020168207871e-01,9.858512474572038442e-02,-9.046707354243772869e-02,-4.360815824859154421e-01,-3.632655094898388226e-01,-4.571893918374937971e-01,3.399810388095562130e-01,3.293563643498742533e-01,4.625492832976230706e-01,6.847551126125396570e-02,-1.065284260492428414e-01,-2.088308466455708889e-01,-1.071452433217698341e-01,-9.055735147503848892e-02,4.624933328261773141e-02,1.043382842330467103e-01,-1.090261362826609876e-01,3.793656867496505991e-01,-3.482138445540496896e-01,-2.302999788730337657e-02,4.616338417585836296e-01,-1.615051868792027334e-01,3.221462955726187571e-01,-5.447332478467211553e-02,-1.935571441902479706e-01,4.229782915036540136e-01,4.557927254846223519e-01,-4.258394418919084767e-01,4.488824891366426928e-01,-4.837389237416829801e-01,-9.706812032673142743e-02,-1.464503888179693458e-01,1.057047478345973374e-01,-4.298348482234630175e-01,3.139930124531534195e-01,-1.273752532757485567e-01,-4.403725156348093916e-01,1.142698320882999247e-01,-3.684345026768471310e-01,-6.036125448316013997e-02,-2.170824791050917149e-02,6.183390312078413525e-02,3.298061653176120323e-01,-1.699082175322779165e-01,-1.690798957830535465e-01,-4.208956566167223468e-01,-8.552561103369304973e-02,2.222830611604410811e-01,3.346222237493125529e-01,-3.254596990366879355e-02,1.717377908544789333e-01,6.054279943161247970e-03,2.481957861308073110e-01,8.870862873555225570e-02,3.562167611721229199e-01,2.692060699200197194e-01,4.190491953502411548e-01,1.492054058967685060e-01,-2.241282709516616845e-01,-3.741647748287842412e-01,-1.276715212684637613e-01,1.846929694037152125e-01,-8.889277909882517537e-03,2.178533371106510519e-01,4.541949208722116382e-01,4.264224192279283399e-01,-5.011087621741441844e-02,3.710933884880712186e-01,-1.050984157416315762e-01,4.900953580757765327e-01,2.590902416200827618e-01,3.007915840163539745e-01,3.681298315925389253e-01,4.077766798941281912e-01,1.927673035242526145e-01,2.879449190091022421e-03,-3.423021407749483047e-01,6.804249135550622003e-03,-3.240466879610617301e-01,4.320269429651799054e-01,-2.809148417788103185e-03,3.361789924206513014e-01,-3.419772654319569449e-01,-1.011608253747567909e-01,-3.766173492288821811e-01,-2.629773727044227849e-01,-2.805904149012251048e-01,-2.641577245944561891e-01,4.949821201715340346e-02,3.871202651156946395e-01,-4.364237001353179490e-01,-3.179608763737079014e-01,7.930873043312383630e-02,2.600787890408387537e-01,3.808988175248121943e-01,-2.114447495472699112e-01,-3.458246564801706335e-01,-1.944065517754446359e-01,-1.407456562833850344e-01,1.431544115595421440e-01,-3.761693219069648375e-01,-1.693794627765665972e-01,2.246226308415626982e-01,-3.358371032576621951e-01,-1.292226550007715968e-01,-2.071312186119432797e-01,2.961502291718206559e-01,2.329430281781019046e-02,1.093568907637470777e-01,3.837614741625787751e-01,3.612507834548615154e-03,2.774142630953576605e-01,-8.228270665287007457e-02,9.031734292533575084e-03,-3.442475339760134867e-01,-4.370243469799108271e-01,4.604515014725242272e-01,-4.454181367171224926e-01,2.834489491265806960e-01,-3.960432137559194987e-01,-3.093780168492064053e-01,1.389136165547179558e-01,2.622152925736881968e-01,2.821945476909530348e-01,2.277266626669597338e-01,-4.703759225928783594e-01,4.749424143217886862e-01,-1.330837187040372627e-01,-3.361511954748994668e-01,5.009348504406004876e-01,1.871273338472538850e-01,-4.926576332105304101e-01,-1.802584696354541105e-01,-2.046651282972772601e-01,7.742971479752110142e-02,3.544686008601792282e-01,-9.588415766297476994e-02,-2.131597505569844675e-01,1.482689784989769388e-01,3.496460571199987155e-02,-2.542556001798799703e-01,-3.582337454087541340e-01,4.591694074301400780e-02,5.565520421835866427e-02,1.052525028227058457e-01,-4.948272939750633648e-01,3.249394216225092724e-01,4.499333779797784483e-01,-5.002501162714895200e-01,8.875470239770126557e-02,2.396407030683972983e-01,4.885794495875642879e-02,1.544965103297201159e-01,2.241236258133059711e-01,-3.046817706626990807e-01,-2.800287243678661331e-01,-1.916987187536596249e-01,-3.280863261226081851e-01,1.484107344906373249e-01,4.839508485119884407e-01,3.614296230323373882e-01,3.440337046238072793e-01,5.305482450660449489e-02,4.922679282584181970e-01,3.088911927626934451e-01,-2.352343252988333411e-01,3.365355294432685884e-01,2.434887928975053017e-01,-5.004423929418827521e-01,2.498640187172181393e-01,2.495004921720716251e-01,-4.103868939840231711e-01,-2.936769359704111126e-01,1.362616187466112461e-01,4.387201810399884994e-01,-4.445260014645974755e-01,-1.549436083168217737e-01,4.708233819690991195e-01,1.047030181240446167e-01,-1.746356696759602811e-01,-3.320603452845849457e-01,-3.648273057669043085e-01,4.520989706216435033e-01,-7.398988058962857606e-02,3.724584164996592173e-01,-1.451062840533121900e-01,-2.988135205267578587e-01,-2.497575308066998789e-01,9.727092486817513761e-02,-4.174503467529034895e-01,2.076444935513076240e-01,2.933271877044756407e-02,3.721085881381541172e-01,2.997950040665416926e-01,-3.326928579785341511e-01,1.741656547310083403e-01,-1.762959340779184092e-01,-2.258568160460995844e-01,3.385265856072794954e-01,3.959975873676623015e-02,1.396975895109509869e-01,-3.441480999680720521e-01,2.497904902354487477e-01,-2.205767556870465163e-01,-1.125529919179425464e-01,3.304665875426692767e-01,-7.327463961333136044e-02,9.421005626832630597e-02,-3.222199425223862268e-01,2.163850796352869976e-01,-4.219565358941540500e-01,4.636496937425094167e-01,-3.660538286978657352e-01,4.048284018833845366e-01,3.064739072930836583e-01,4.146730869743285308e-01,-3.901037678596034897e-01,6.992579844017669799e-02,1.758129493356037076e-01,7.743758928756211413e-02,1.918179738825654401e-01,3.201779010577955695e-03,1.336471774593117057e-01,-2.581944522126556896e-01,5.067699135294775892e-02,1.008375232688494584e-02,-1.545597065869644404e-01,1.111724716430096890e-02,-2.474696773355717916e-01,-1.899559063421504268e-01,-3.470023827527839999e-01,-1.278165980837171626e-03,-1.193580636691779634e-01,5.832679674472743964e-02,3.131234133041945755e-01,-1.644052066321833039e-01,1.696599309200870209e-01,2.001536669872626684e-01,-1.766202325728389588e-01,4.485813174647624302e-01,3.976865080237791950e-01,-2.856373612179819443e-01,4.531921006412464870e-02,-1.002937760868384265e-01,-3.326424580981063306e-01,2.371598890304477125e-01,-8.154262551380474233e-02,-9.760780492608712999e-02,-9.512338061402621225e-03,4.923734982159655438e-01,2.783250053655004219e-01,-2.738974362699083120e-01,-7.005255485285813433e-02,-3.855320824881462438e-01,3.283891699510398943e-01,2.901069734909472175e-01,4.368515887713934065e-01,-8.546318551246273598e-02,-3.803775643551264296e-01,-3.481510240810962165e-01,4.610228773070362274e-01,1.591928216654510120e-01,-2.384587451138911185e-01,-3.137342347076642612e-01,-4.641249866930669543e-01,5.152714015139568671e-02,-5.914652822781433367e-02,2.397507257350866561e-01,-8.387682888731037845e-02,4.543520829372552777e-02,4.909632394534575034e-02,4.155726703888041884e-01,4.314958555641936755e-01,-4.821715617171638546e-01,4.056649790926062926e-01,-4.846728197551305461e-01,4.837753473161685025e-01,-1.486602977354984922e-01,-2.630772465043342279e-01,-3.015202815232186917e-01,3.818039951453727210e-01,5.059667606126226902e-01,-1.591837775790298781e-01,-1.434851604777585277e-01,1.615841669052994201e-01,-3.065160281058506020e-01,2.443367905884146971e-02,4.743479237909142832e-01,-2.228258650835014953e-01,3.130731397585398423e-02,-1.767993406224808717e-01,-2.122667712107189353e-01,-3.537019050568811496e-01,-2.624951890168846225e-01,-2.419832658694330008e-01,-4.325975870915376720e-01,-1.194933971587705118e-01,3.525738062742093670e-01,-2.640678325757143119e-01,-1.731556366004471381e-01,-8.894649986479262471e-02,1.410354358695268817e-01,-1.576329680943197586e-01,-2.364650666290294134e-01,3.539178493418134175e-01,2.991506766051413649e-02,-3.250704393418896720e-01,-1.706343921093876337e-01,5.602585431020741524e-02,7.092607703012011877e-02,3.186213781834107417e-01,4.532598188319698629e-01,-2.036432726786174471e-02,-2.119200324518579481e-01,1.358076919065937666e-03,-1.301265290947019870e-01,-3.128367817843050180e-01,-4.713517619743281539e-01,2.785256544332878614e-01,4.299957296473800317e-01,-3.499707096852610611e-01,3.665138578409384840e-01,3.992190129468612958e-01,1.551195601544322344e-01,4.499657070087011851e-02,2.069895402288521591e-01,-1.956483019712967619e-01,-1.043273721934027953e-01,1.006563906112039330e-01,-4.013629794683404861e-01,3.043744683304939191e-01,1.580664678252943212e-01,-1.583817533047228721e-01,-2.305832023398513009e-01,-4.367222951572560241e-01,2.886192283912811796e-01,-5.684219786475729758e-02,-4.652390411703185014e-01,-5.719416280651516693e-02,-1.974779014579194358e-01,2.038249834525170667e-01,-1.086911802498288782e-01,7.934715846353621038e-02,-4.058842724732495549e-02,-3.644687284022924967e-01,-3.139712119739733742e-01,-2.908948638565039824e-01,-2.483618723793051819e-01,3.297990139171033674e-01,-4.684655380018863668e-02,-7.320011932724468373e-02,2.419460171963459805e-01,7.213375622953863142e-02,-2.189599990198100310e-02,-3.181619060746990191e-01,2.510181280311885588e-01,-4.868896526264360203e-01,1.077433274188820955e-01,-1.234426866245764004e-01,-2.516688149813475772e-01,-3.170237936665205591e-01,3.364734467689272507e-02,2.277168271908801833e-01,1.072490988188607441e-01,1.922650246440447963e-02,-4.395019572867707169e-01,1.596032252343214941e-01,4.342787102080816197e-01,-9.861909570230149857e-02,-1.956566441468663708e-01,3.936417350919449443e-01,-1.729159581400838697e-01,-2.522571059621878664e-01,-4.310223883399003086e-01,6.546409394404856252e-02,3.463652077339086643e-01,-3.115071720383472686e-01,3.504451790760543806e-01,1.210295578085666401e-01,-9.274427849393114542e-02,-5.677334147565878814e-02,6.722138699701493691e-02,-3.244081525759365814e-01,-4.090509908593930599e-01,2.120732450399785973e-01,-1.259312261251945009e-01,-3.068468872289823457e-01,2.119477589107867169e-02,-4.757189167722201129e-01,-1.769230462486635347e-01,3.169903249057369199e-01,1.963638037523538493e-01,-1.520002780717638335e-01,-1.536330248587291225e-01,-3.534655376611409716e-01,-1.606408473706716356e-01,4.262354789356969098e-01,-2.301731654939390484e-02,-4.117202215760253359e-01,-2.999790369893913233e-01,1.757152776039382358e-01,1.400505500614090404e-01,-4.708616314559014304e-01,3.641585689773503831e-01,-4.476440134649735114e-01,-6.948712367341453033e-02,2.182070493152609980e-01,-1.760454946959029709e-01,3.205500615180931767e-01,-4.680058157386025042e-01,2.533372672819327875e-01,1.555795401638651043e-01,4.500911075042396403e-01,-2.678319490146902765e-02,2.095714795441615819e-01,1.703284542001133051e-01,-8.135190224039928752e-02,1.589822227862693893e-01,-1.073898409568988521e-01,2.921004509546759609e-01,2.849879565860840014e-01,-2.480947362779645227e-01,-4.580528601507453668e-01,1.151480463721771264e-01,2.642857190665647282e-01,6.711645043986329273e-02,-7.233692561135149357e-02,3.651644564934633519e-01,-3.401828044551883368e-01,8.399580839713387259e-02,-3.214945558986439522e-01,-6.023473827880735515e-02,2.617279207500692317e-01,-2.247336400097857678e-01,-2.125750899839818908e-01,-2.243030949448387990e-01,3.342657270250085633e-01,-2.980292215224142893e-01,-1.421309308709868269e-01,-9.351696045380512856e-02,-6.086575162188588572e-02,-3.681445209946160313e-01,-1.891846718337719113e-01,1.508050575991106909e-02,-6.416430044703304303e-02,-4.724275625751464536e-01,1.794206663496182019e-01,-4.491016992903250626e-01,5.111698232759008809e-01,2.118865809338069672e-01,3.525257475711866539e-01,4.213029272927262814e-01,-3.963006975584710267e-01,2.871547060618272196e-02,2.599843104248568681e-01,2.761525089398109700e-01,1.205628671753101594e-01,-2.401364604559084459e-01,2.368590700312270259e-01,4.569430705900109912e-01,4.897731648328093046e-01,3.796106015271548673e-01,2.401443824665349669e-01,3.225682830257531886e-01,1.195195267148722040e-01,-6.620289311567389978e-02,-5.471147375189935186e-02,-4.435949689530186424e-01,-3.018328608936822199e-01,-1.477841564841453070e-01,8.615960506367294214e-02,4.808200336048006757e-02,-2.448977479378526834e-01,-2.552051899703808302e-01,-1.848699446885170850e-01,5.043192147866712993e-01,5.080023172672539777e-01,4.427564051089111219e-01,-1.072627834130351066e-01,-4.111417732811574188e-01,3.277263542375055128e-01,-1.766071131118528426e-01,-1.350151115676304081e-01,1.200630006112517233e-03,-4.784181899374160829e-01,-2.038064406687520314e-01,-1.760282878566299114e-01,-2.853093277286123941e-01,6.717898198950286726e-03,3.737186435973073872e-01,-2.071101392438425004e-01,-2.697359501677784044e-01,-1.845516359476949420e-01,-4.201597205836838933e-01,-6.427212809171953256e-02,-4.658049182242637309e-01,3.761018591092591956e-01,3.055134446858229769e-01,1.463173793640238640e-01,-6.200457541123273464e-02,-4.412957789013479681e-01,-3.402434522587414190e-01,3.637481335076076516e-01,8.232895944811255418e-02,-2.223257601253299520e-01,-2.232421129434464802e-01,1.516217896183881253e-01,-3.744385648112630305e-01,3.028300631273245225e-01,-3.710276242043567541e-01,-1.335689834908464768e-01,-4.280503447395980765e-01,-4.539075565505674703e-01,1.228430468497936356e-01,-4.703468219648754833e-01,-4.582261757019579496e-01,2.971975116769050573e-01,6.487932464880452610e-02,-1.206370953094624832e-01,-4.884676851839366701e-02,-4.917306972614184368e-01,-3.218021864103527419e-01,1.913731335653051646e-01,-2.210565793535113899e-01,-3.296426736330450580e-01,-1.242752379842105986e-01,-1.126150863436230359e-01,4.758086675627362649e-01,-2.338442068160033194e-01,-1.757818811742606624e-01,4.473970922906062575e-01,-7.110199305687210647e-02,3.503351204250075290e-01,-4.272562194953526404e-01,-3.743354360235248701e-01,2.861281508792299366e-01,-3.541715957329409359e-01,-1.192708171754676555e-01,1.115860929761787745e-01,2.726620921629852035e-01,-3.378331786865775288e-01,-2.289774707477808535e-01,-2.825982620873392429e-02,-2.991581323699898931e-02,-2.508488809995641500e-01,2.005954371205288522e-01,4.483279167276372768e-01,-1.534002708191238851e-01,2.326864098188232699e-01,-3.173921965894846986e-01,-1.870491309920760126e-01,3.747936905149542031e-01,3.137452742239041359e-01,-1.428191497700736223e-01,2.242294423933694214e-01,-1.030416704976502016e-03,-4.986842986467140970e-02,-5.395634598895097944e-02,-3.460511602462751357e-01,-3.008515234520405257e-01,-1.497871354935834398e-01,3.030896232841202506e-02,-3.568904018149245960e-01,-3.333753871213781528e-01,6.184033691588157640e-03,3.401595838250603410e-01,4.351629402908084310e-01,-1.590677141949754514e-01,-1.749842519191920354e-01,3.966515215479392009e-01,4.653539396748814228e-01,-4.699544505094689906e-01,3.254767837025151350e-02,3.204680074789740818e-01,1.489654074518836080e-01,-9.358598224367589702e-03,2.090623840761976493e-01,-1.800695211876555124e-01,1.383646844112902674e-01,1.841501920236079115e-01,-2.190234725705411389e-01,-3.359631957670753399e-01,-4.660182708831498433e-01,-2.962332727256999920e-01,-3.065245014783357647e-01,1.315529566992384436e-01,-3.121303170841742136e-01,-2.162907102318617769e-01,-3.042327135937525906e-01,-2.117694842115329934e-01,2.215169178656706817e-01,-4.238475182811623498e-01,-3.650219767453964370e-01,-2.901541172130391866e-01,-1.611275244722291389e-01,2.461158366440354683e-01,-4.101540017453115250e-01,1.992256127329924131e-01,4.340368376710469767e-02,1.386606204467396020e-01,-3.599279526449043753e-02,1.111473218560604381e-01,9.343990815669750427e-02,-2.273463281905893085e-01,-3.607533266970633923e-01,2.834350521846614179e-01,-4.641914426953462347e-01,4.681506525859680523e-01,4.865623782311189749e-01,1.983493336977269206e-01,-4.195042902782462058e-01,-1.210479171353876227e-01,-4.479716747105250696e-01,3.122713950341355349e-01,-2.419132895902543212e-01,-1.323427652534043264e-01,7.666194873334096320e-03,-3.067141132470421749e-01,2.999819657576091592e-01,-3.034966780162955402e-01,3.241046871258433937e-01,3.894706859804940580e-01,-5.035308811526291173e-01,4.647380361683995376e-01,-4.624599391336479681e-01,4.197567771421097382e-01,-7.577521727101478588e-02,-6.050712138298273632e-03,4.021977118089342107e-01,3.159148477824666457e-01,2.558806980572843615e-01,-4.245398182409393928e-01,-3.854942365063516729e-01,2.070169055272469694e-01,1.984633804035170479e-01,8.778610259005656391e-03
